/* Generated by Edge Impulse
 *
 * Permission is hereby granted, free of charge, to any person obtaining a copy
 * of this software and associated documentation files (the "Software"), to deal
 * in the Software without restriction, including without limitation the rights
 * to use, copy, modify, merge, publish, distribute, sublicense, and/or sell
 * copies of the Software, and to permit persons to whom the Software is
 * furnished to do so, subject to the following conditions:
 *
 * The above copyright notice and this permission notice shall be included in
 * all copies or substantial portions of the Software.
 *
 * THE SOFTWARE IS PROVIDED "AS IS", WITHOUT WARRANTY OF ANY KIND, EXPRESS OR
 * IMPLIED, INCLUDING BUT NOT LIMITED TO THE WARRANTIES OF MERCHANTABILITY,
 * FITNESS FOR A PARTICULAR PURPOSE AND NONINFRINGEMENT. IN NO EVENT SHALL THE
 * AUTHORS OR COPYRIGHT HOLDERS BE LIABLE FOR ANY CLAIM, DAMAGES OR OTHER
 * LIABILITY, WHETHER IN AN ACTION OF CONTRACT, TORT OR OTHERWISE, ARISING FROM,
 * OUT OF OR IN CONNECTION WITH THE SOFTWARE OR THE USE OR OTHER DEALINGS IN THE
 * SOFTWARE.
 */
// Generated on: 11.12.2023 21:17:55

#include <stdio.h>
#include <stdlib.h>
#include "edge-impulse-sdk/tensorflow/lite/c/builtin_op_data.h"
#include "edge-impulse-sdk/tensorflow/lite/c/common.h"
#include "edge-impulse-sdk/tensorflow/lite/micro/micro_mutable_op_resolver.h"
#include "edge-impulse-sdk/porting/ei_classifier_porting.h"

#if EI_CLASSIFIER_PRINT_STATE
#if defined(__cplusplus) && EI_C_LINKAGE == 1
extern "C" {
    extern void ei_printf(const char *format, ...);
}
#else
extern void ei_printf(const char *format, ...);
#endif
#endif

#if defined __GNUC__
#define ALIGN(X) __attribute__((aligned(X)))
#elif defined _MSC_VER
#define ALIGN(X) __declspec(align(X))
#elif defined __TASKING__
#define ALIGN(X) __align(X)
#elif defined __ICCARM__
#define ALIGN(x) __attribute__((aligned(x)))
#endif

#ifndef EI_MAX_SCRATCH_BUFFER_COUNT
#ifndef CONFIG_IDF_TARGET_ESP32S3
#define EI_MAX_SCRATCH_BUFFER_COUNT 30
#else
#define EI_MAX_SCRATCH_BUFFER_COUNT 60
#endif // CONFIG_IDF_TARGET_ESP32S3
#endif // EI_MAX_SCRATCH_BUFFER_COUNT

#ifndef EI_MAX_OVERFLOW_BUFFER_COUNT
#define EI_MAX_OVERFLOW_BUFFER_COUNT 10
#endif // EI_MAX_OVERFLOW_BUFFER_COUNT

using namespace tflite;
using namespace tflite::ops;
using namespace tflite::ops::micro;

namespace {

#if defined(EI_CLASSIFIER_ALLOCATION_STATIC_HIMAX) || defined(EI_CLASSIFIER_ALLOCATION_STATIC_HIMAX_GNU)
constexpr int kTensorArenaSize = 56272;
#else
constexpr int kTensorArenaSize = 55248;
#endif

#if defined(EI_CLASSIFIER_ALLOCATION_STATIC)
uint8_t tensor_arena[kTensorArenaSize] ALIGN(16);
#elif defined(EI_CLASSIFIER_ALLOCATION_STATIC_HIMAX)
#pragma Bss(".tensor_arena")
uint8_t tensor_arena[kTensorArenaSize] ALIGN(16);
#pragma Bss()
#elif defined(EI_CLASSIFIER_ALLOCATION_STATIC_HIMAX_GNU)
uint8_t tensor_arena[kTensorArenaSize] ALIGN(16) __attribute__((section(".tensor_arena")));
#else
#define EI_CLASSIFIER_ALLOCATION_HEAP 1
uint8_t* tensor_arena = NULL;
#endif

static uint8_t* tensor_boundary;
static uint8_t* current_location;

template <int SZ, class T> struct TfArray {
  int sz; T elem[SZ];
};
enum used_operators_e {
  OP_CONV_2D, OP_DEPTHWISE_CONV_2D, OP_PAD, OP_MEAN, OP_FULLY_CONNECTED, OP_SOFTMAX,  OP_LAST
};
struct TensorInfo_t { // subset of TfLiteTensor used for initialization from constant memory
  TfLiteAllocationType allocation_type;
  TfLiteType type;
  void* data;
  TfLiteIntArray* dims;
  size_t bytes;
  TfLiteQuantization quantization;
};
struct NodeInfo_t { // subset of TfLiteNode used for initialization from constant memory
  struct TfLiteIntArray* inputs;
  struct TfLiteIntArray* outputs;
  void* builtin_data;
  used_operators_e used_op_index;
};

typedef struct {
  TfLiteTensor tensor;
  int16_t index;
} TfLiteTensorWithIndex;

typedef struct {
  TfLiteEvalTensor tensor;
  int16_t index;
} TfLiteEvalTensorWithIndex;

TfLiteContext ctx{};
static const int MAX_TFL_TENSOR_COUNT = 4;
static TfLiteTensorWithIndex tflTensors[MAX_TFL_TENSOR_COUNT];
static const int MAX_TFL_EVAL_COUNT = 4;
static TfLiteEvalTensorWithIndex tflEvalTensors[MAX_TFL_EVAL_COUNT];
TfLiteRegistration registrations[OP_LAST];
TfLiteNode tflNodes[35];

const TfArray<4, int> tensor_dimension0 = { 4, { 1,96,96,3 } };
const TfArray<1, float> quant0_scale = { 1, { 0.0039215688593685627, } };
const TfArray<1, int> quant0_zero = { 1, { -128 } };
const TfLiteAffineQuantization quant0 = { (TfLiteFloatArray*)&quant0_scale, (TfLiteIntArray*)&quant0_zero, 0 };
const ALIGN(16) int32_t tensor_data1[4*2] = { 
  0, 0, 
  0, 1, 
  0, 1, 
  0, 0, 
};
const TfArray<2, int> tensor_dimension1 = { 2, { 4,2 } };
const ALIGN(8) int32_t tensor_data2[2] = { 1, 2, };
const TfArray<1, int> tensor_dimension2 = { 1, { 2 } };
const ALIGN(8) int32_t tensor_data3[3] = { -66, -197, 233, };
const TfArray<1, int> tensor_dimension3 = { 1, { 3 } };
const TfArray<1, float> quant3_scale = { 1, { 8.4024322859477252e-05, } };
const TfArray<1, int> quant3_zero = { 1, { 0 } };
const TfLiteAffineQuantization quant3 = { (TfLiteFloatArray*)&quant3_scale, (TfLiteIntArray*)&quant3_zero, 0 };
const ALIGN(16) int8_t tensor_data4[3*64] = { 
  -53, -28, 11, -65, 85, -86, 81, 57, 34, -82, -5, 44, -70, -10, -3, -68, 73, -66, 90, 24, -42, -5, -80, -55, -96, -20, 53, 19, 21, 11, -32, -89, -62, 91, -27, 88, -81, 14, 77, -49, -42, -79, -101, 79, -9, -105, -92, -19, 9, 68, -43, 79, -43, 83, 25, -33, -58, -72, 65, 78, 81, 26, -86, -25, 
  -47, 7, -59, -22, 20, -56, -96, -98, 7, -72, 40, 48, -51, 88, -50, 17, -63, 26, -29, -3, 127, -36, 104, -57, 98, -62, 39, -1, 43, -60, -61, -38, 59, 23, -93, 44, -64, 52, 44, 89, -31, -60, -98, 86, 89, 56, 14, -14, -92, -76, 20, -78, -24, -32, -59, -67, -71, 50, 44, 3, -40, 29, -1, 35, 
  -84, 15, 15, 85, -35, 17, 21, -47, 1, -77, 85, -60, 71, -12, -72, -84, -89, -78, -43, -99, 59, 78, -67, 15, -94, 4, 82, 5, 102, -2, 2, 4, 39, -123, 36, 69, 86, 29, 5, 23, 97, 38, -5, -50, -92, -76, 1, -26, 6, 35, -83, -71, -36, -52, 51, -125, 50, 2, 28, -80, 20, 83, -40, -110, 
};
const TfArray<2, int> tensor_dimension4 = { 2, { 3,64 } };
const TfArray<1, float> quant4_scale = { 1, { 0.0031480393372476101, } };
const TfArray<1, int> quant4_zero = { 1, { 0 } };
const TfLiteAffineQuantization quant4 = { (TfLiteFloatArray*)&quant4_scale, (TfLiteIntArray*)&quant4_zero, 0 };
const ALIGN(16) int32_t tensor_data5[64] = { -157, 225, -230, -222, -154, 216, 154, -134, -321, -213, -60, -206, 384, -254, -199, -407, 366, -216, 176, 178, 194, -137, 227, 226, -83, 222, 64, -85, 301, -291, 96, -275, -292, 347, -152, -196, -259, -274, -274, -235, -43, -155, 400, -156, 225, -338, -189, -253, -81, 758, 261, 114, -194, -315, 0, 371, 110, -323, -680, -411, -325, -277, -397, -208, };
const TfArray<1, int> tensor_dimension5 = { 1, { 64 } };
const TfArray<1, float> quant5_scale = { 1, { 5.2877752750646323e-05, } };
const TfArray<1, int> quant5_zero = { 1, { 0 } };
const TfLiteAffineQuantization quant5 = { (TfLiteFloatArray*)&quant5_scale, (TfLiteIntArray*)&quant5_zero, 0 };
const ALIGN(16) int8_t tensor_data6[64*102] = { 
  51, -12, -4, -70, 35, 19, -22, 54, -63, 52, -74, 11, -36, -13, -57, 58, 38, 116, -41, 42, 94, -77, 6, 1, 21, -91, 42, -8, -74, 42, -14, 62, -70, 49, 34, 28, 25, 25, -43, 97, -57, -4, 0, 76, -44, -54, -42, -10, 60, 88, 5, 40, -13, 95, 47, -20, -22, 10, 38, -1, -28, -66, -77, 66, 32, -35, 60, 75, -67, -63, 36, 36, -82, -5, -96, -65, -12, -2, -41, 14, 42, 0, -25, 54, 17, 61, 45, 50, -75, 25, 50, 33, -4, 57, -50, 12, -15, 14, 54, 97, -23, -50, 
  17, 93, 53, -14, 84, 51, -26, -7, 96, -12, -35, -95, 73, -70, 44, -24, -36, 96, 42, -23, -30, 18, -91, -21, 41, -53, -13, -86, 40, 49, 21, 50, 75, 12, 10, -75, 112, -55, 62, 62, 78, 4, 63, -53, 23, 67, -14, -5, -2, -32, 84, -65, 40, -7, 77, 88, 46, 55, 2, -8, 48, -17, -24, -38, -38, 4, -64, 30, 42, 9, 29, 10, 27, -71, 65, -41, 56, 63, 44, 31, 112, -79, 64, 38, -96, 27, -50, 86, 80, 42, -83, -86, -29, -78, 50, -37, -82, 97, -14, -4, -56, -32, 
  -35, 37, -66, -20, 41, -16, -78, 49, 81, -56, -74, -57, -18, -41, -1, 37, -11, 20, 41, -38, 38, -60, 44, 30, 8, -2, -85, -52, -4, -94, -55, -52, -37, 12, 52, 41, 59, -21, 67, -19, 3, -73, 50, 46, -28, -5, -16, -43, 55, -61, -46, 13, -35, -5, -11, 77, 43, -37, -66, 60, 70, -60, 78, -2, -60, -31, -74, 53, -67, -60, 43, -14, -77, -36, 46, -50, 77, 42, 8, -32, -57, 44, -14, -10, 2, -55, 28, -84, -23, -46, 56, -66, 50, 40, 70, 73, 33, 21, -41, 15, 21, -1, 
  -44, -15, 45, -16, -68, 69, 38, 55, -27, 15, -30, 60, -57, -44, -61, -25, 68, 57, -61, -58, 80, -44, -51, -29, -66, -17, 58, 20, 89, 88, -40, -23, 60, 44, 49, -77, 28, 11, -10, -84, 10, 80, -45, -19, 47, -91, 50, -11, -14, -28, -52, -55, -1, -87, -16, 38, 2, -62, -19, 84, 53, 14, 3, -57, 48, -53, -25, 41, 39, 20, -40, -28, -88, 15, -12, 46, -38, 57, 31, 23, -31, 60, -76, -17, 58, 80, 50, 79, -16, 40, -56, -85, -21, 21, 5, -80, -55, 22, 29, -24, -90, 89, 
  -71, -28, 0, 59, 37, 54, -6, -52, 46, 43, -10, 1, -62, -19, 35, 51, -38, 42, 39, 20, 52, -74, 46, -77, 91, -83, -27, -68, 13, -45, -15, -68, -58, 20, 64, -82, 81, -5, -3, -18, -27, 73, -66, 4, -15, 27, -65, -47, -19, -37, 4, -26, -36, 3, -38, 16, -39, 15, 18, -87, -29, -8, 73, 76, -69, 46, 56, -56, 51, 63, 69, -1, -65, -19, -57, 46, -70, -39, 52, -69, 77, 53, 49, -38, -74, -14, 32, -62, -29, -7, -11, -15, -25, -38, -64, -29, 70, -12, 60, 44, -88, 33, 
  2, 48, 62, 76, 66, -65, -70, 60, 100, 45, 50, 16, 67, -84, -36, 67, 51, -82, 4, 48, 30, -30, -95, -76, -40, -19, 55, -54, -50, -58, 72, -66, 38, 104, 6, -79, -49, -5, 35, 65, 55, -14, 101, -31, -2, -45, -24, -44, -7, -66, 66, 45, 69, 72, -5, 82, -6, -14, 45, 52, -40, -56, 36, -30, -51, -49, -45, 33, 47, 16, -38, -29, 15, 28, -69, 22, 4, 56, -46, 33, 15, -54, 49, -86, 38, 29, 36, 69, -32, -58, -62, 56, 54, 26, -65, -32, -41, 48, -59, -40, -62, 68, 
  -74, 47, -3, 58, -97, 58, -42, 56, 55, 51, 42, -45, -95, -67, -28, -33, -70, -48, 79, 21, 2, 46, -46, 59, -38, -52, 75, -21, 19, -17, -54, -31, -28, -78, 69, 18, -35, -13, 48, -2, -41, 48, -103, -53, -48, -54, -34, 13, -19, -84, -53, 52, 19, -56, 45, 69, -59, 11, 45, 15, 72, 11, 63, 27, -22, 26, 72, -45, 27, 12, -56, 53, -51, -57, 77, -69, -36, -63, 48, 61, -54, 67, -4, 15, -27, -16, 86, -25, -87, 15, 76, -7, 48, 36, -26, -100, -15, -6, -26, -30, 64, 61, 
  0, -101, 85, 75, -73, -26, -89, 40, -81, 4, 3, -35, -94, 32, -97, 76, -22, -18, 0, -78, 0, 13, -94, 39, 35, -51, 37, -1, 64, -75, 59, 18, 59, -1, 19, 52, 8, -13, 28, -58, 39, 4, -94, -11, 50, 81, 79, 10, 44, -28, 22, 59, -67, -3, -79, -19, -64, 47, 27, -24, 61, -84, -32, 41, 13, -21, 8, 15, 76, -39, -94, -1, 58, 70, 12, -54, 13, -34, -77, -13, -18, 71, 28, -29, 85, -1, 26, -101, 45, -68, 37, 69, 17, -36, 0, 13, -21, -27, 11, 56, -3, 40, 
  -39, -15, 69, -29, 52, 30, -58, 68, 32, -43, 35, -76, -9, 46, 29, 52, 60, -19, 70, 12, -8, 4, -32, 6, 74, 28, -22, 44, 62, -20, 44, -43, 27, 1, 13, -48, 29, -2, -66, -81, 48, -92, -48, 60, 27, 73, -2, 25, 47, 54, -72, -82, -42, 20, -52, 47, 54, -88, -7, 75, -49, -35, 72, 73, -61, -30, 6, -24, -56, -32, 49, -68, -58, 63, 39, -72, -27, 22, -58, -53, -71, -21, 32, 67, -22, 9, -29, -20, -13, 56, -77, -37, 19, 62, 1, -77, -74, 25, -75, -85, -90, 18, 
  57, 22, -74, 17, 39, -9, 70, 39, -24, 48, -59, 53, -86, -2, -53, 74, 61, 4, -52, -39, -80, -5, -79, 66, -37, 74, 43, 21, -75, 57, -49, -15, -77, -38, -80, 52, -83, -78, 23, -21, -20, 34, 25, -79, -3, 47, -54, 73, -65, 48, -53, -9, -60, -13, -63, -6, -45, -87, 40, 12, -89, 32, -26, -73, -60, 62, -46, -48, 21, -53, 46, -28, 20, 29, 44, 7, 58, 43, 71, -70, -79, -38, -32, -23, 53, 67, 37, -51, -67, -45, -26, -86, -82, 4, -54, 14, -46, 26, 20, 45, -75, 66, 
  60, 69, 46, 44, 42, -1, -3, 12, 35, 22, -37, -4, -44, 2, -37, 13, -42, 78, 44, -4, -1, -27, -81, -72, -64, 65, 40, -49, 64, -36, 17, -56, -61, -18, 9, 50, -14, 8, 30, -3, 82, -35, -42, 24, -55, 36, -47, -29, -73, 29, -76, -27, 48, -13, 6, 45, 0, 41, -67, 28, -17, -44, 79, -77, -35, -86, -59, 1, -9, -34, 2, -62, -69, -24, 7, -69, 13, 42, -18, 23, -58, 39, -7, -1, -70, -62, 2, -69, -82, -80, -26, 56, -38, 39, 79, -24, -41, 60, 77, -70, -10, -19, 
  -47, -15, 33, -23, 58, -51, 72, 26, -47, 36, 48, -21, -52, 33, -86, -62, -72, -57, -63, 68, -29, 5, -78, -78, 36, 5, -26, 24, 37, -67, 28, -44, -80, -77, -19, -63, -18, -69, -79, 40, 32, -58, -80, 64, -78, -33, 76, -69, -73, 37, 57, 8, 37, 59, -44, -86, -77, -75, 49, 13, 42, -57, 66, -20, -37, -79, -79, 70, 51, -55, 26, 49, 47, -36, 74, -19, -38, 20, -50, -24, -49, -59, 8, 10, -16, 13, 69, -16, -30, 18, -28, -88, 24, 61, -63, 27, -83, 11, -81, 26, -57, 61, 
  101, -54, 12, 12, -38, -30, 76, 15, 101, -44, -57, -11, 21, -72, -98, 68, 56, -73, 18, 17, -35, -62, -50, 45, 36, -52, -42, 33, -70, -41, -35, -44, 3, 7, -26, -22, 52, -25, 31, -39, 80, 80, 77, 49, -28, -59, -95, 12, -58, -91, 51, 97, 88, -71, -67, 36, 77, -30, 127, -67, -34, 8, -26, -47, 33, 6, 11, -58, -60, 27, 23, -37, -49, 34, 37, 23, 75, -84, -64, 47, -53, 77, -35, -47, -12, 3, 12, 17, -35, 55, -19, -29, 15, -70, 17, 50, -83, 36, 87, -58, 66, 11, 
  -20, -3, -108, 54, -15, -44, -36, -65, 29, 55, 53, -1, 14, 47, 57, 26, -43, 59, 49, -66, -22, 100, 46, -31, 49, -35, 48, -74, -81, -46, -69, -63, -64, -56, 61, 84, 55, 92, 45, 23, -38, -56, 78, 2, 59, 69, -65, 2, -37, 56, -5, -14, -87, 41, 30, -42, -39, -51, 34, 60, -56, -80, -9, 31, -15, 9, -79, -14, 63, -26, 65, -90, -63, 58, 16, -18, -36, -70, 25, -19, 40, 45, -16, 38, -5, -25, -56, -7, -80, 9, -2, -22, 63, 70, 14, -76, -21, -4, -93, 59, 83, 20, 
  -34, -82, -87, -48, -10, 34, 3, 9, -67, -72, 3, 66, -64, 6, 44, 18, -34, 65, -27, -1, 55, -79, -77, -76, -6, -66, 43, 11, -63, 12, -54, -8, -28, -43, -35, 13, 62, 5, -63, 35, -17, -88, 70, 12, 8, -69, -18, 48, -36, -76, -38, 35, 61, -7, -44, -14, 8, 43, 70, 74, -27, 32, -83, 19, 30, 0, 62, -78, -55, -63, 10, 76, -29, -61, 54, -41, -18, -47, 66, -85, -17, -44, 28, 25, -1, 66, 24, -55, -70, 15, -15, -57, 21, 42, 35, 25, -73, 14, 11, -76, 54, 73, 
  -10, 59, -47, -48, 55, 8, 86, -56, 62, 7, -72, 42, 52, 58, -7, 46, 19, 22, 31, 59, 66, -39, -54, -23, -3, 27, 11, 29, -18, 58, 1, -3, -95, 7, -35, -3, -69, 59, 57, -70, 60, 21, -38, -33, 81, 1, 58, 27, -20, 81, -41, -38, 83, -37, -54, 32, -38, 5, 0, -3, 54, 56, -81, -55, 14, -35, -91, 77, -7, -86, -49, 24, 62, -52, -74, -19, 49, -19, 66, -63, -16, -15, 85, 24, -44, -80, -40, 26, -60, -70, 42, 2, -63, -25, 52, 32, 52, -33, 25, -6, 23, 36, 
  -40, 29, 30, -56, 64, -85, -54, 97, -17, -67, -68, 29, 45, 12, -44, -3, 17, 80, 75, -68, -49, 52, 38, -17, 74, -89, -86, 56, -50, -53, -44, 27, 12, -13, -20, 83, 41, -14, -76, 61, -55, -52, 31, -39, 26, 70, 3, 9, 66, 12, 49, -13, -29, 28, 81, -38, 45, 14, 38, 37, 60, 23, -66, 59, 78, -67, 15, -53, 3, -63, -54, -15, 42, 33, 69, 15, 47, -69, -48, -66, 19, 29, -79, -50, -29, 63, 23, 27, -70, -41, -1, 24, -7, -34, 79, -45, 5, -102, -53, -32, -54, 45, 
  -20, 1, -57, -96, -51, -11, 71, 59, 16, 11, -91, -16, -26, 3, -21, -9, -64, 37, 20, -32, -10, 56, 13, 39, 38, 21, -16, 24, -52, -83, -65, -65, -19, -54, -19, -57, -68, -56, 16, -27, 17, 67, -78, 4, 74, 63, 24, -75, 28, 54, -29, -58, -1, -43, 38, -1, 72, 68, -99, 56, -88, 42, 69, 19, -30, -36, -23, 34, 68, -60, 32, -34, -86, 74, -52, -93, 37, 59, -41, 63, -47, -3, -74, 43, -38, 7, 54, 37, -22, -72, 71, 57, -58, -45, 82, -69, -11, -67, 27, 16, 9, 81, 
  -60, -36, 25, 18, -29, -1, -79, 59, -64, -34, -9, 69, 12, -54, -72, 0, 30, -23, 35, -97, 45, 3, 4, 16, -71, 1, -81, -72, 6, 63, -74, 66, 34, -57, 16, -78, -3, 21, 39, 25, -82, 57, -83, 39, -93, -6, 28, -7, 62, 74, -35, 14, 62, -26, -59, -32, 19, 70, 3, -45, 20, -42, 14, 58, 22, 62, 6, 91, -48, -1, -70, 50, 88, 76, 27, -75, 3, 43, 18, 18, 27, 32, -5, 62, -34, -69, 17, -80, 44, 3, 80, 25, -57, 54, -53, -2, -41, -63, -60, -44, -35, -10, 
  2, 40, 42, -71, 23, -17, 52, -19, -16, -31, -96, -22, -36, -22, 10, 8, 75, -25, 13, -92, -6, -39, 76, -67, -40, 61, -2, -25, 22, -78, 45, 78, -8, 41, -61, 71, -12, 83, -46, -3, 4, -63, -60, 66, -53, -52, 34, -95, -70, 58, 69, -3, -39, 78, 50, 21, 38, -35, 18, 34, 6, 27, -36, -17, 9, -15, 19, 69, 83, -29, 10, 60, 66, -51, -61, 28, -53, 17, 40, -54, -71, 58, 5, 75, 93, 0, 26, 40, -32, -25, -42, 15, 19, -76, 91, 69, 39, -15, -10, 50, 84, -74, 
  -2, 28, 54, 32, 58, 20, -48, -109, -33, -78, 16, 76, -67, 81, 84, 33, -24, 120, 31, 83, 16, 3, 7, -34, -3, -62, -53, -18, -28, -31, -44, 70, -80, 45, -64, 81, -16, 14, -55, 43, 13, 37, 10, -57, 100, -43, -37, -1, 86, -27, -16, -25, 6, -69, -41, 10, -81, 12, 3, 21, -19, 7, 29, 90, 106, 11, -10, 29, 25, 40, -64, 23, -20, -77, 15, -38, 93, 59, 68, -58, -32, -53, 21, -2, -30, -66, 10, 70, 34, -90, 16, -55, 64, -64, -95, -28, 28, 14, -11, 76, 9, 80, 
  59, 65, 87, 57, -32, 79, 63, -39, -73, 35, 54, -42, 6, -43, 10, -71, -13, 11, -78, -69, 25, -23, 18, -34, -7, -66, 43, 15, 36, -52, 45, 61, -15, -24, -38, 13, 82, 35, 79, -55, 73, 10, -32, 16, 14, -50, 48, -30, -31, 55, -46, 32, -36, -12, -15, -52, -9, -16, 77, -59, -5, -11, 16, 27, 18, -42, -102, -17, -58, -68, -25, 40, 36, 13, -33, -8, -19, 47, 62, -82, 39, 7, 35, -35, 63, 1, 27, -49, 17, -76, -74, -1, 78, -60, 28, -17, -69, 61, -78, -54, 52, 58, 
  -40, 80, -29, 4, 37, 39, -46, -123, 48, 22, -1, 13, -20, 39, -63, -43, 16, -38, -56, -18, 33, 95, 23, -11, -58, -43, -76, -105, -86, -15, 67, -30, 18, -34, 66, 4, 23, 31, 58, -8, 95, 18, 91, -47, 31, -62, -73, -33, -40, 8, -32, 23, -46, 6, 8, 79, 36, -48, -31, 29, 38, -56, 57, -4, -36, 52, -26, -30, -75, -67, -42, 59, 27, 39, -79, -87, 32, 20, 103, 49, -12, 13, 117, 82, -45, 2, 66, -22, -12, -21, 4, 23, 51, -64, 27, -66, 7, 58, -4, -21, 42, 9, 
  39, 34, 43, -16, 10, 48, 75, 80, 60, -17, -3, 44, -54, -46, 9, -22, 81, -29, 66, 91, -85, 15, -37, -7, -73, 66, -77, 35, -35, -71, 81, -108, 52, -13, -96, -89, 64, 2, 36, -74, 9, -18, 34, 35, 52, -43, 70, 64, 15, -57, 51, 48, 14, -60, -66, 16, -60, 44, 27, 57, 39, 27, 47, -15, -57, 29, -44, -49, -79, -12, 68, 48, 84, -76, -13, 2, 74, -93, -19, -27, -74, -2, -110, 13, -4, -23, -72, 8, -37, -83, 25, -84, 62, -3, 53, -72, 36, 26, 77, -1, -27, 75, 
  3, -40, -7, -73, 71, 42, 51, -6, -6, -74, 62, 49, 70, -49, -27, -66, 13, -3, -95, 20, 9, 22, 11, 44, 14, -29, -44, 20, 13, 60, 60, 75, -95, -10, 76, 27, -19, 0, -39, -78, -17, -64, 84, -61, -3, -30, 41, -29, -33, 21, -44, 60, -57, -89, -12, -60, -43, 51, -3, -16, -79, -33, 51, 37, 66, 40, 73, 35, 7, 55, 71, -5, -5, -72, -108, 40, -48, 17, 67, 63, 0, 40, 17, -48, -44, -19, 9, 36, -67, 10, 35, -64, -36, -26, 18, 48, -15, -41, 51, 68, -12, 10, 
  14, -86, 46, -62, 18, 27, 71, 96, 9, -62, 65, -37, 12, 48, -88, 29, 58, -110, 34, 30, -92, -106, -34, 15, 2, -15, -23, 66, -35, 48, -74, 7, 18, -75, 28, 23, -75, -69, -60, 69, 34, -2, -8, -63, 54, 62, 55, -17, -87, 23, -60, 27, 4, -45, 62, -20, 43, -34, 53, -58, -67, 80, 61, -2, 79, -77, 20, 37, 1, -53, 30, -49, -40, -17, 87, -7, 43, 0, -3, 4, -3, -14, -80, 25, -56, -4, -38, 20, -52, -38, 81, 77, -42, -78, -13, 30, -2, 2, 49, 38, -8, -77, 
  -22, -89, -16, -67, 78, -14, -42, 44, 25, -20, -57, 10, -40, -36, -97, -29, 24, -71, 95, 20, 48, 4, 2, 30, 4, 36, 51, -65, 72, 5, -59, -106, 39, -40, -34, -111, -53, -11, -59, -84, 82, 51, 2, 30, -34, 30, 58, 89, -60, -4, -44, -17, 21, -78, 5, 27, -62, 38, 35, 42, 73, 87, 2, -26, -29, -84, 51, 56, 36, 49, 14, 11, 32, -38, -51, -56, 96, -50, -100, -55, -1, -12, 21, 56, -42, 2, -75, -6, 85, -12, 59, 37, 60, -16, 37, -11, -30, -43, 22, 71, -35, 37, 
  50, -79, 49, -35, -34, -80, -7, 1, 80, -4, -49, 40, -10, -29, 74, 68, 48, 6, -55, -75, -41, 16, 10, -49, -79, -12, 10, -67, -31, 42, -70, -17, -82, -83, 50, 64, 45, -28, 4, -13, -81, -58, -15, 31, 28, 2, -45, 52, -72, -39, -7, -57, -27, -24, -83, 54, -18, 11, -21, -21, 61, 20, 29, 74, -31, -52, -72, 0, 29, 32, -38, -75, 37, 13, -23, -63, -58, 27, -5, 1, -39, 12, 77, 13, -81, 35, 45, 70, -47, -63, 40, 26, -87, -86, 80, -57, -12, 28, 7, 37, -63, -41, 
  91, -74, 63, -39, -60, -7, 58, 77, 108, 36, -17, -83, 34, 17, -46, -10, -17, 20, 78, 78, 26, -41, 38, -60, -45, 52, -32, 7, 119, 81, -23, -99, -34, 62, 27, -94, 18, 40, 15, -20, 91, 3, 42, -76, -76, 6, -74, 35, -82, 39, -73, 67, 18, 55, 6, 70, 17, -70, 53, -46, -3, -17, 54, -69, 56, -67, -9, -16, -38, -83, -76, -81, 74, 20, -54, -26, -27, -44, -81, -49, 18, 96, -71, -77, -79, 86, 47, 5, -22, 39, 23, -47, 37, -30, -80, -36, -76, 51, 79, 10, -38, 36, 
  -84, -87, -65, 60, 0, 18, 29, 8, -43, -15, -17, 45, -83, -83, -19, 32, -92, 36, 1, -27, 65, -7, 56, 32, 65, -98, -39, 89, -36, -43, 29, -54, 23, -26, -13, 41, 46, -20, -57, 28, 12, -67, -17, -45, -8, -52, -73, -29, -38, 41, 75, -98, 47, -74, -22, -86, -28, 59, -28, 15, -21, 45, -69, 32, -78, 68, 22, 65, 17, -85, -91, -8, 15, 74, 17, 95, -44, -48, -22, 7, 45, -55, 35, 0, -20, 49, 68, -13, -41, -63, 67, 78, -9, 68, 11, 2, 21, 7, -34, 29, 57, -21, 
  3, 55, -10, 93, 61, -9, -43, 4, 21, 69, 82, 25, 92, 33, -12, -65, 11, 27, 16, -60, -35, 46, -63, -66, -52, 7, 2, -40, -30, 34, -50, -83, -22, 3, 72, 32, -26, -35, 66, 25, -47, -74, 64, -60, -44, 80, -84, 50, -8, -41, -105, 38, 28, -13, 31, 41, -71, -22, -46, 18, 22, -32, -68, -32, 72, -48, 75, -27, 50, 0, 0, -7, -74, -71, 76, -7, -9, -44, 5, -48, -84, 2, -70, 42, -83, -17, 21, 33, 42, -51, -32, -8, -40, -80, 12, 29, 47, 32, 25, 25, -79, -32, 
  -47, -1, 4, -57, 4, 41, 56, 37, 54, 54, -44, -13, 12, 48, -11, 61, 46, -71, -66, -2, -56, -71, 58, 45, 26, 24, -48, 61, -70, 42, 58, 60, -8, 11, -53, -59, 72, 17, 64, -19, 4, 45, -27, 27, 62, 18, -85, 92, 62, 8, -5, 51, -83, -69, 60, -33, 67, -94, 7, -71, 33, 23, -74, -11, -6, 8, -16, 14, 6, -29, 12, 55, 39, 69, 58, -44, -39, 1, -82, -40, 66, 47, -86, -27, 49, -23, 60, 80, 22, -69, -26, -17, -65, -48, -16, -53, -1, 61, -73, -44, -86, 80, 
  1, 18, -17, 12, -5, 55, 46, 6, 87, 15, -49, 28, 76, -78, -77, -63, 70, 48, 69, 55, 56, 82, 48, -34, -25, -65, 20, -57, -71, -80, -47, 54, -66, 14, 12, -59, 95, -65, -53, -46, -10, -66, 95, -5, 2, 58, -92, -44, 4, 53, -35, -48, 65, 51, -64, -10, -35, -8, 96, 89, -30, -22, -63, -30, -52, 18, -15, 39, 38, 51, 79, 41, 24, 7, -42, 18, -39, 8, 27, 3, -31, 26, 44, 50, -33, -41, 44, 49, 83, 50, -56, -41, -61, -4, 13, 26, 40, 33, -86, -55, 42, -51, 
  -4, 54, 32, -54, -53, -81, -50, 26, -71, -66, -44, 67, -13, -24, 5, -67, -48, -7, 48, -95, 51, -84, -15, 51, 32, 6, 26, -2, 69, -53, -26, 31, -13, 28, 34, 78, -61, -58, -47, 23, -87, -66, 24, 50, 59, 48, 36, 27, -71, 1, -65, -65, -19, 26, 93, -37, 74, -38, 33, 51, 22, 56, -56, 26, 82, 95, 19, 84, 84, -47, -9, -34, 68, 49, 42, 27, 62, 30, -49, 67, -42, 59, -67, -23, 72, -71, -43, -70, -65, 20, 101, -42, 17, 39, 82, -11, 63, 18, 66, -17, -36, 49, 
  52, -3, -57, -90, 35, -47, 4, -24, -69, -74, 47, 38, -43, 64, -41, 7, 83, -28, -70, -74, 2, 74, -93, 68, 6, -60, 77, -15, 53, 64, 69, 55, -32, -62, -5, -23, 9, -33, 47, -15, 17, -21, -25, 3, 2, 69, 72, -70, 55, -88, -16, -76, -20, 5, 18, -5, -27, 39, -55, -49, 29, -2, -30, 62, 57, 74, 67, -67, 56, -30, 68, 53, -82, 4, 24, 45, 4, -50, -64, -71, -65, -3, -84, -40, 24, 91, -28, 9, 3, 1, 63, -46, -61, 41, -19, 50, -1, 86, -10, 37, 17, 70, 
  28, 51, 1, 44, -74, -82, -10, -10, 32, -8, 12, -73, 26, 36, -33, -80, 11, -83, 44, -12, 25, -103, -57, 31, 47, -5, 9, -54, 61, 64, 34, 10, -52, -12, 54, 24, -10, 53, -64, -7, -65, -20, 12, 0, -62, 1, 30, 88, 41, -67, -75, -79, 28, 70, 6, -91, -49, -79, 42, 15, -66, -54, 81, -39, -40, 47, 47, 43, 34, 34, -59, 70, 71, -47, -5, 69, 6, 41, -8, 18, 12, -10, 16, 20, -21, -19, -15, -33, -73, 59, 56, 36, 9, 70, 34, -57, 42, -95, 47, 71, 34, -60, 
  0, -26, 47, 15, 23, -33, -15, -25, 5, -75, 68, 34, -46, -40, 27, 47, -63, -39, -74, -12, -37, 59, 13, -83, -33, -20, 63, -71, -46, -93, 64, 12, -77, 49, -26, -72, -55, 60, 3, -11, -65, -15, -74, -13, 52, 12, -46, 68, 51, 24, -43, 43, -41, -29, -60, -60, 68, 28, -48, -44, -62, 31, -23, 59, -70, 43, -28, 38, -74, 31, 17, -56, -54, -55, -18, 27, -78, 53, 4, 67, -71, -66, 22, 44, -42, -11, 18, 59, -33, 10, 60, 65, 31, -13, -78, 49, -74, 18, 41, -89, -65, -63, 
  -27, -37, 41, -43, 91, 14, 4, -81, -70, -16, -48, 89, -42, 11, 76, 16, 54, 104, -67, 61, -69, 70, 70, 46, 31, -36, 13, -76, 61, 46, 78, -8, -1, 24, -54, -55, 2, 17, 60, -56, 55, 43, 58, 21, -70, -27, -83, -12, 15, -16, 22, 48, 91, -33, 7, 74, 75, -41, -31, 2, -33, -30, 67, 37, 45, -25, 63, 62, -68, 29, -73, 4, -22, 21, 2, 75, -28, -82, 10, -55, -22, -54, -43, 36, 13, -50, 20, -21, -46, -10, 66, 35, 1, -25, 2, -53, -33, -2, 72, 52, 20, 51, 
  24, 22, -38, 71, -21, -21, -61, -63, -36, 42, 49, 24, -30, -4, -102, -49, 20, 49, -45, 16, 80, -25, 19, 77, 86, -27, -12, -75, 57, -14, -60, 22, -77, -88, -79, -71, 68, 8, -29, -63, 65, 10, -75, 36, -79, 30, 92, 59, 72, 70, -55, 33, 1, 22, -76, 19, -1, 54, -96, 55, 80, -84, -16, -29, 67, 24, -79, 57, 28, 39, -24, 46, 30, -75, 55, 12, -42, 39, 14, -43, -27, -12, -24, -8, -41, -82, -58, -4, 13, -18, 11, 77, 20, -50, 59, -45, 25, 17, -52, -53, 7, -77, 
  74, 81, 19, 66, 45, 46, -2, -48, -39, 48, -46, -8, 12, -63, 87, 13, -54, -56, -24, 53, -72, -73, -40, -1, -21, -39, -31, -54, -61, -6, -17, 42, 60, 52, -72, 86, -7, 65, -76, -28, -57, 23, -9, -50, -46, -72, -75, 17, 66, -54, -39, -64, -54, -37, -19, -14, -33, -37, 69, -64, 44, -70, 79, 23, -2, -84, -45, -21, 46, -49, 16, 39, -6, 67, -7, 37, 84, -74, -66, -76, 19, -49, 77, -66, 43, 31, -70, 58, 5, 13, -77, 64, -36, -49, -7, -34, -31, 26, 43, 35, 57, 8, 
  54, -40, -77, 2, 48, -44, 25, 67, 74, -81, -68, -79, -24, -67, -63, -42, 40, 24, -45, 49, -41, 53, 0, -1, 34, 59, 57, 59, -74, -48, -9, 71, 41, 59, 63, -95, -49, 23, 12, 67, 8, -18, 72, 2, -11, -9, 7, 48, -53, -23, 17, -3, 73, -93, -84, -7, -4, 32, 78, 45, -68, -32, -59, 51, -90, -21, 35, -31, -51, 47, 11, -84, 53, -73, 51, -15, 49, 29, -22, -38, -42, 80, -73, -34, 31, -61, 74, -27, 26, -70, -81, -73, 36, 8, 51, 81, -11, -21, -75, -29, 76, -11, 
  22, 39, 37, -65, 18, -52, -26, -56, 61, 59, 4, -3, 60, 63, 26, 6, 44, -65, -58, -1, -4, -78, 19, -59, -98, -38, -71, 20, -42, -26, -70, -19, 46, 64, 16, -24, 40, 34, -38, 60, 9, -10, -83, -23, -47, 55, 29, 11, -13, -9, -41, -35, 88, -65, 48, -12, -3, 24, 77, 51, 27, 46, 29, 39, 2, 58, -62, -59, 9, 78, 25, -60, 55, -2, -27, 67, 83, -76, -40, 6, -24, -29, -81, -70, -39, 103, 23, 64, -36, -78, 4, 27, -28, -37, -26, 17, -71, -72, 61, 33, 27, 3, 
  80, -52, -29, 40, 30, 43, -16, -51, 1, 47, 90, -33, -6, -61, -46, 10, 2, -96, 56, 84, -49, 66, -20, -3, 29, 7, 31, -37, 87, -63, -22, -88, 17, -16, 12, -93, 11, -65, -48, -58, 47, 20, -44, 53, -37, -48, -82, 69, -65, 68, 4, 44, -19, 8, 61, 75, 38, 59, 60, 21, 75, -54, -12, 2, -18, -94, -28, 9, 41, -65, 76, 85, 16, 5, 39, 37, -55, -1, 4, -33, 71, 38, -72, 44, -63, -16, -66, 16, -29, 57, 2, -46, -36, 44, -52, -103, -76, -11, 3, -5, 1, 107, 
  43, 26, 10, -67, -46, -89, 27, -23, 47, 20, 59, -28, -34, 30, -56, 35, -82, 59, -41, 3, 88, 70, 73, -10, -45, 43, -27, -54, -24, -68, 34, 60, 9, 54, -4, 79, 32, 0, -1, 50, -49, 60, -7, 97, -11, 44, -52, -28, -77, 8, 38, -39, 23, 64, 71, 20, 46, -30, 1, -23, -8, 3, 67, 6, 66, 87, -19, 59, 59, 38, 56, -72, -5, -32, 60, -109, -32, -46, -23, 42, -55, -79, -46, 10, 24, -69, 69, 73, -40, -55, -22, -1, 110, 18, -14, 60, 108, -41, -55, 37, -70, -32, 
  71, -31, -90, -44, 75, -7, 46, 31, -46, 41, -64, 106, -25, -33, 4, 37, -24, 66, 39, 24, 60, -57, 89, 34, -9, -19, 75, 39, -64, -18, -48, 52, 33, -25, -47, 58, -64, -28, 58, 8, -14, -46, -24, -76, -33, 34, -33, -72, 6, 85, 20, -21, -51, -5, -57, -29, -60, 1, -82, 16, -71, 8, -11, 2, 68, -80, 40, -24, -88, -51, -25, -2, -31, 28, -95, 19, 25, 10, 48, 22, 40, 38, -9, 100, -2, -2, -15, -75, 44, 12, -32, 53, -4, 54, 0, -23, -17, 92, 29, 15, -21, -86, 
  -6, 95, -28, 19, 64, 71, 55, 20, 57, -61, -14, 19, 29, -43, 68, -77, 38, 61, 10, 33, 44, -27, -41, -81, -2, 64, -16, -16, 35, -46, 18, 38, 52, 46, -27, 57, -30, 18, -90, 11, 16, 46, -11, -44, 36, -88, -33, 6, -35, 62, 47, 18, -63, 36, 4, -85, -4, 2, 49, 70, 39, 26, -70, -3, -14, 78, -73, 37, -87, -15, 51, -79, -95, 29, -21, -83, 30, 65, -22, 11, 65, 4, 59, 16, -64, -1, 62, -20, 45, 20, -35, -31, 9, 17, 31, -40, 23, 37, -19, -5, -73, 39, 
  77, 3, 80, -45, 70, 1, 61, -109, 10, 26, -35, -86, 57, 75, 31, -66, -2, -9, 35, -68, -28, -26, 72, -84, -67, 49, 6, -63, -14, 18, -5, 68, -19, 82, 18, 57, -50, -31, -1, -2, 57, 21, -6, 75, 16, 37, -68, -26, -66, 6, -27, 49, 60, -37, 25, 29, -17, -64, 83, -64, -36, 44, -18, -59, 50, -25, -45, 27, -6, -63, -76, -51, -41, 43, 58, 42, 62, -56, 60, -21, 1, 52, 17, -47, -36, 30, 10, 97, 43, 8, 0, -33, -65, -39, 46, 44, 44, 74, 65, 4, 48, -22, 
  -28, -33, 1, 75, -63, 50, -27, -47, -41, -44, 50, 79, -36, -49, -20, 2, 37, -63, -21, -81, 64, -55, 47, -71, 32, 58, 42, -62, -89, -27, -6, -62, -89, 51, 41, 25, 14, -79, 73, -87, -5, 3, -55, 65, -5, -35, -25, 53, 34, 12, -21, 71, -6, 24, 23, 80, -65, 71, -31, 6, -10, 3, -74, -28, 36, -59, -35, -43, 3, -79, 42, 77, -87, 26, -37, 31, -64, 69, -28, -64, 18, 64, 71, -17, -71, -20, 32, 9, 60, -62, -4, 18, -18, 66, 49, 3, -83, 32, -19, 46, 8, 25, 
  17, -73, 85, 66, -74, 60, 25, 57, 47, 58, -30, 14, 47, -26, -60, 90, 72, -19, -75, 51, -74, -3, -51, 83, 1, 28, -82, -49, 58, -32, 7, 35, 17, 7, -46, -53, -13, -78, -28, -5, -56, 57, -54, 66, -44, 67, 29, -53, -77, 65, 34, 30, -85, 15, 35, -33, -59, 9, -76, -60, 34, 27, -43, -34, 0, -52, -79, 36, 39, 59, 45, -62, 18, -14, 94, -61, 9, 72, 67, 31, 3, 80, -49, -88, -6, 54, -37, 19, 56, 31, -77, 19, 9, -68, -77, 27, -15, 4, -23, 29, 12, -3, 
  46, -5, -3, -32, -14, -10, -46, 111, 91, -66, -63, -70, 80, 42, -47, 83, -41, -75, 90, 54, 21, -62, 19, -13, 24, -23, -63, 19, -23, -59, -51, -66, -33, 7, 72, 54, -61, -57, -50, 30, -37, -88, -15, -18, 60, -27, -16, -34, 47, -54, 24, 32, 31, -36, 50, 28, -6, 84, -86, -17, -46, 26, -31, 23, 37, -26, -54, -6, 8, 13, 49, 46, -13, 42, 107, 100, 57, 86, -8, -11, -97, 20, -76, 17, -34, 26, 50, 24, -40, 81, 49, 15, -41, 75, -64, -32, -31, -80, -35, 53, 48, -63, 
  -17, -52, -35, 30, 35, 26, -7, -5, -24, -4, 41, 78, -11, -57, -26, 65, 48, -15, -75, -1, 29, -3, 78, -66, 96, 43, 19, -78, 12, -24, -6, 44, 6, -40, 70, 111, 99, -3, -77, -58, -25, 36, 33, 56, -6, -38, 0, -57, 12, -20, -61, -18, -3, 85, 4, 81, -36, 24, 2, 9, 88, -50, 47, 55, 77, 18, -28, 74, -28, 12, 0, 12, -56, -33, -93, -20, 56, 72, 79, -26, -26, -60, 81, 115, 4, -55, -66, 76, -50, -54, 68, -56, 40, 52, -15, 84, 8, 0, -3, 15, -64, 44, 
  9, 11, 87, 34, -71, 22, -7, 117, -8, 25, -48, -45, 31, 57, 33, -64, 36, 30, -39, -42, 23, -110, 12, -56, 70, 56, -13, -5, 45, -28, -15, -3, 35, -66, 14, 31, 53, 15, -85, 56, -103, 38, 40, -31, -82, -33, -18, 45, -32, 10, 63, -93, 66, 58, 42, -8, 17, -15, -15, -9, 21, 42, 78, -29, 20, -101, 1, -4, 75, 58, -25, -49, 62, -24, 21, -91, -78, -69, 18, -9, -3, 72, 27, -55, -52, -41, -25, -81, 26, -46, -71, -21, -42, -24, 80, 44, 55, 35, -32, -59, 70, -53, 
  -5, -58, -5, -45, 56, 82, 38, 1, 32, 43, 65, -39, 11, -28, 38, -75, -71, 10, -63, -6, 50, -2, 35, -10, 32, 70, 61, 60, 10, -62, -43, -42, -35, 20, 27, 49, -10, -27, -10, 71, 50, -29, 40, 80, -12, -9, 23, 15, -40, -85, -62, 69, -14, -5, -68, 11, -52, 74, -16, 60, 37, 8, 2, -84, 18, 55, 63, -50, -8, 72, -14, -17, 23, 23, -4, 49, -4, 8, 13, -15, -70, -67, 97, 109, 33, -46, 76, 3, -8, -11, -29, -22, -30, 8, -43, 12, -79, -59, -7, -28, -14, 90, 
  7, -53, 39, -33, -18, -23, 16, 81, -18, -65, -60, -18, 17, 15, -11, 53, -64, -92, -10, 51, 32, 13, -52, -61, -13, 44, 50, 49, -67, 72, -61, 36, -65, 23, 35, -48, -41, 65, 65, -57, -46, 11, 56, 24, 18, -30, -22, -33, -92, -6, 55, 50, 54, 47, -56, 73, 59, -1, -30, 52, 62, 7, 17, -59, 62, -69, -25, -59, -73, -74, -70, 3, 56, -1, -21, -65, -63, -13, 17, 23, -105, -66, 44, -32, 69, -27, -47, -32, 53, 74, 80, 31, 57, 59, 9, -48, 73, -30, -64, 68, 14, -18, 
  -9, -4, -67, -70, -28, -82, -82, 71, -6, 17, 56, 78, 8, -75, 5, -81, -65, -70, -67, 21, -55, -14, -32, -19, 5, -27, -31, 44, -77, -51, 45, 32, -8, -59, -72, -46, 26, -35, -82, -29, -73, -29, 64, 57, 4, -67, -81, 44, 1, -57, -2, 82, -32, -36, 7, 48, 8, 0, -35, 84, 84, -14, -16, -6, -61, -61, 36, 48, -83, 70, -65, -26, 58, -7, -71, -77, -68, -72, 79, 66, -3, -7, -62, -46, -81, 33, -57, 4, 66, 61, -81, -18, 78, -76, -33, 76, 0, -2, 55, -25, -76, 46, 
  -46, -70, 47, 64, -55, -84, 73, 4, -49, 25, -88, -39, -87, 73, -64, 2, -48, 35, 87, 9, -16, 2, 16, -36, 81, -41, -3, -11, -11, 73, -6, 38, -55, -34, 64, -22, 35, 71, -52, 54, -50, -23, -4, 90, 68, 3, 73, 24, 23, -85, 57, 78, -53, -16, -31, 5, -26, -20, -92, 19, 40, 20, -47, 51, -59, 99, -75, 19, -61, 71, -55, -11, -50, -73, 70, -79, -27, -9, 60, -61, -44, 69, 7, 44, 18, -1, -21, -15, -71, 96, 29, 43, 62, 28, 50, 2, 62, 14, 93, 2, 55, -61, 
  -40, 49, 56, -48, -54, 90, 21, -54, -15, -23, -43, -26, 72, -24, 19, 59, -54, -22, -18, -68, -94, -4, -7, -74, -31, 23, -54, -41, 48, -20, 13, 39, 33, 61, 67, -74, 58, -44, 62, -79, 64, 57, 60, -26, -72, 53, -59, 62, -57, -73, 9, -44, 8, -62, 42, -44, -51, 38, 92, -20, -29, 8, 53, 69, 87, -34, -59, -84, 12, 75, -49, 16, -68, 71, -29, 12, -46, -57, 15, 10, 62, 63, -77, -91, 48, -65, 86, 77, 73, -40, 50, 35, -17, -15, 63, -65, -43, -45, 71, 59, -84, 81, 
  -60, 40, -50, 24, -52, 56, 90, -64, -73, 85, 47, 60, -58, -41, 63, -45, 33, -34, 3, 37, 43, 95, 26, -79, -87, -63, 63, -74, -71, -44, -29, 43, 13, -21, -33, 80, 50, -40, 51, -13, 88, 48, -59, -68, 82, -2, 58, 26, -76, -36, 59, 1, 68, 43, -85, 16, 55, 26, -37, -42, -57, 13, 66, -75, -21, 7, -41, 38, 59, 41, 16, -23, 51, 35, -54, 27, 9, 19, 82, 34, 75, -37, 0, 75, -96, -1, 50, -24, 81, -40, 32, -20, -69, 62, -49, -46, 59, -2, -12, 36, -68, 30, 
  -7, -55, -22, -73, 35, 21, -73, -22, -14, 42, -9, 28, 26, -61, -67, 56, 45, 50, 39, 59, -56, -14, 40, 27, 7, -57, -70, 83, 18, -30, 34, -45, -57, -23, -27, 18, -9, 12, -14, 43, 0, -84, 50, 24, 0, 10, 70, 29, 52, 26, -48, -24, 24, -41, 76, 59, -98, 68, 37, 22, 8, -13, 59, -6, -12, -76, -31, 0, 50, -37, 47, 51, -7, 49, -86, 59, -4, -73, -46, -5, -14, -89, 29, 0, 4, 1, 14, 28, 24, -5, 13, -6, -90, -74, 67, 12, 30, -37, -55, 29, 56, -95, 
  -19, 51, -32, 15, 55, -80, 0, -15, -37, -36, 20, -81, 46, 17, 31, -88, 68, -39, 49, -23, 79, -70, 43, 75, -53, -12, 26, -2, 60, 24, 28, -21, -57, -17, -24, 79, -74, 46, -1, -13, 22, 54, -9, 37, -49, 42, -19, -83, 7, -4, 12, -43, -32, -56, -61, -3, -86, 66, -15, 58, 35, -96, -34, 4, -98, 12, 39, -18, 74, 14, -24, -18, -33, 42, -69, 1, 45, -34, 16, 72, -50, 50, 52, 78, 8, 45, 62, 50, -89, 38, -41, -67, -1, -42, -39, -77, 72, -58, -47, 40, -44, 49, 
  -88, -64, 52, 49, 60, 48, -55, -25, 29, -24, 53, 46, -93, -49, -32, 35, -6, -85, 37, 6, -23, -42, -31, -51, -30, -57, -41, 37, -28, -5, -11, 22, -29, -92, 9, -32, -60, 6, 53, 57, -33, -81, 41, -8, -8, 42, -78, 21, -29, -40, 49, 21, 13, -71, 73, 32, -82, 9, -53, 5, 44, 26, 75, 41, -34, 67, -27, 15, 59, 7, -66, 78, 40, 64, -46, -12, -49, 24, 6, 58, 7, 85, 27, -89, 28, -58, 27, -87, -80, -14, 35, -56, -68, -10, -14, -43, 37, 62, -21, -8, 25, 62, 
  -19, 70, 28, 21, 19, -26, 66, 58, -21, 43, -43, -73, 56, -50, 75, -74, 7, -110, 37, 12, -62, -3, -110, 49, -27, 59, 86, -82, -49, -97, -69, 59, -14, -59, 56, 21, 1, -81, 14, -54, -34, 61, -47, -40, 20, 25, 68, 89, 74, 73, 33, 8, -24, 26, -21, -24, -51, -95, -43, 53, 49, 35, 23, 10, 66, 35, 1, 40, 40, 37, -78, 35, -62, -8, -31, 28, 5, 15, 27, -7, 40, -39, -25, -14, 14, 87, 10, -24, -71, -6, 21, -28, 22, -5, 55, -33, -89, -16, 56, 28, -79, 76, 
  -22, -73, -12, -6, 24, -34, 21, 40, 2, -32, -15, -64, -87, -58, -62, -9, -87, -50, -57, -71, 35, 3, 14, 21, 70, -26, -76, 42, 42, 52, 73, -55, 12, -49, 9, 11, 53, 27, -41, 47, 63, -48, -18, 13, -86, 64, -26, 7, 48, -24, 42, -51, -24, 39, -31, 34, 60, -37, -59, 34, 30, -73, -53, -25, 30, -13, 17, -92, 48, -92, 49, -70, -4, 29, -60, 37, -69, 18, 44, -59, 36, -50, -45, 25, -27, -14, -55, 72, 10, 42, 67, 8, 19, 18, 42, -4, 51, -42, -43, 17, -60, -88, 
  0, -33, -93, -80, -10, 10, 20, -66, 74, 50, -43, 63, 29, 27, -60, -33, -85, 120, -41, -59, 61, 82, 4, 75, 4, 24, 30, 42, 58, 33, 82, 59, 15, 60, 21, 2, -2, -3, -6, 11, 76, 36, 27, 38, -27, 57, 5, -23, 18, -38, -25, -31, 12, 4, 79, -17, -52, 37, 0, -71, -9, -35, -41, 34, -74, 51, 51, 82, -5, -75, 72, -91, -46, 3, 57, 45, 64, -36, -76, 52, 37, 49, 48, 99, 46, -74, 75, 17, -67, 41, -11, -53, -43, -12, 68, 103, -52, -52, -31, 56, 13, 13, 
};
const TfArray<2, int> tensor_dimension6 = { 2, { 64,102 } };
const TfArray<1, float> quant6_scale = { 1, { 0.0022559603676199913, } };
const TfArray<1, int> quant6_zero = { 1, { 0 } };
const TfLiteAffineQuantization quant6 = { (TfLiteFloatArray*)&quant6_scale, (TfLiteIntArray*)&quant6_zero, 0 };
const ALIGN(16) int32_t tensor_data7[102] = { -10045, -1197, 30172, 27094, 18801, 12942, 23540, -6712, 25651, -10762, 10168, -1853, -2188, 9963, 7992, 17857, -9274, 12623, 11212, 32226, 14921, 14095, -1734, 14418, -14827, 14661, 12880, 20566, 33636, 8781, 19147, -6652, 20366, 43034, 28084, -7895, 24027, 5418, 4459, 2592, 23241, 5263, -5117, 15727, -551, -22262, 16573, 25466, 5916, 46121, 14555, 2156, 19807, -33358, 19316, -4846, 12807, 20232, 7831, 14708, 4513, 14023, 34675, 24753, 16664, 8186, 380, 9345, 18936, -11442, 26151, -2439, 17690, -17562, -12888, 32514, 26699, 29330, 31454, 28527, 9185, -17679, -4728, -1297, 8441, 36447, 20163, 906, 54515, -8712, -12894, 16493, -1991, 21833, 24639, 16176, -18490, 16115, 4902, 5216, 20503, 19737, };
const TfArray<1, int> tensor_dimension7 = { 1, { 102 } };
const TfArray<102, float> quant7_scale = { 102, { 0.00019308163609821349, 0.00014905480202287436, 0.0001735482073854655, 0.00015701595111750066, 0.00022716421517543495, 0.00016802932077553123, 0.00019680392870213836, 0.00013738124107476324, 0.00013692001812160015, 0.00014860781084280461, 0.00018999303574673831, 0.00022842426551505923, 0.0001769060327205807, 0.00019789155339822173, 0.00016127397248055786, 0.0001785185158951208, 0.00015159971371758729, 0.000222081333049573, 0.00017536862287670374, 0.0001379295572405681, 0.00015050036017782986, 0.00019284186419099569, 0.00018651116988621652, 0.0002590577641967684, 0.0001598314120201394, 0.00014415441546589136, 0.00021212443243712187, 0.00020493792544584721, 0.00016019848408177495, 0.00015106658975128084, 0.00017874460900202394, 0.00022386146883945912, 0.00022916590387467295, 0.00019598976359702647, 0.00023169342603068799, 0.00015917344717308879, 0.00019345952023286372, 0.00014510021719615906, 0.00016066149692051113, 0.00016730705101508647, 0.0001795316202333197, 0.00014833507884759456, 0.00020230685186106712, 0.00018885359168052673, 0.00012865642202086747, 0.00015416527458000928, 0.00015510221419390291, 0.00020820603822357953, 0.00019898226310033351, 0.00024962075985968113, 0.00018694395839702338, 0.0002400092052994296, 0.0001773063704604283, 0.00013399760064203292, 0.00026513138436712325, 0.00019478693138808012, 0.0002843857801053673, 0.00015941256424412131, 0.0002488495665602386, 0.00017940303951036185, 0.00016797060379758477, 0.00022839833400212228, 0.000152646578499116, 0.00015612476272508502, 0.00020508079614955932, 0.00017317829770036042, 0.00016994265024550259, 0.00019884541688952595, 0.00019276060629636049, 0.00013049460540059954, 0.00020496590877883136, 0.00016704743029549718, 0.00024144248163793236, 0.00013862924242857844, 0.00018543886835686862, 0.0001523978280602023, 0.00017748044047039002, 0.00014639974688179791, 0.00021232507424429059, 0.0002091242786264047, 0.00021561220637522638, 0.00013636704534292221, 0.000210515660000965, 0.00020824250532314181, 0.00022537416953127831, 0.00016233990027103573, 0.00017077560187317431, 0.00018548039952293038, 0.00016422539192717522, 0.00016981613589450717, 0.00019324458844494075, 0.00019814255938399583, 0.00021432853827718645, 0.00020217096607666463, 0.00021913539967499673, 0.00027922567096538842, 0.00018598341557662934, 0.0001991192257264629, 0.00022705219453200698, 0.00021018831466790289, 0.00016312208026647568, 0.00019881859770976007, } };
const TfArray<102, int> quant7_zero = { 102, { 0,0,0,0,0,0,0,0,0,0,0,0,0,0,0,0,0,0,0,0,0,0,0,0,0,0,0,0,0,0,0,0,0,0,0,0,0,0,0,0,0,0,0,0,0,0,0,0,0,0,0,0,0,0,0,0,0,0,0,0,0,0,0,0,0,0,0,0,0,0,0,0,0,0,0,0,0,0,0,0,0,0,0,0,0,0,0,0,0,0,0,0,0,0,0,0,0,0,0,0,0,0 } };
const TfLiteAffineQuantization quant7 = { (TfLiteFloatArray*)&quant7_scale, (TfLiteIntArray*)&quant7_zero, 0 };
const ALIGN(16) int8_t tensor_data8[102*1*1*102] = { 
  /* [0][0][][] */ 3,-10,1,27,22,-3,6,52,53,23,10,29,127,77,5,58,41,-22,-6,33,4,57,26,-26,45,12,13,-7,62,-28,-16,-14,7,-59,-63,-17,5,-41,-39,15,-14,-25,22,-15,58,-8,18,-25,4,-27,-68,-6,29,18,-19,19,-34,74,22,-4,26,24,-3,14,33,-35,-36,-17,12,-38,-10,-24,-1,-44,49,-50,-39,10,-60,-8,-57,7,18,-16,23,3,15,-36,22,85,20,31,-56,-30,4,43,-19,-1,-11,48,21,-47, 
  /* [1][0][][] */ 56,-92,35,-31,36,4,-69,16,-81,-24,28,-39,-39,117,-86,50,21,3,0,-25,42,-1,56,-11,60,-8,25,79,-28,54,15,-23,-72,11,-39,-49,40,-42,83,-69,-9,-50,44,67,-54,-41,7,41,68,-67,71,-12,58,-96,-26,-127,83,43,16,84,-40,-26,46,-57,-61,24,1,-72,-28,40,-1,96,46,20,87,-56,-4,20,-39,-64,-3,4,40,-30,23,15,109,-40,88,38,16,21,-44,67,15,-19,0,-41,-58,-47,45,-120, 
  /* [2][0][][] */ -9,-26,0,3,-75,0,-40,-99,-31,9,38,15,-86,14,16,-41,-76,-49,-32,11,-24,60,5,-111,-27,-6,108,-31,10,-92,71,-51,-61,-41,65,34,6,3,-23,6,111,-28,69,35,-71,-7,17,47,-4,-43,49,38,-18,-24,-38,1,-70,-15,-37,32,-57,-31,-10,-43,-32,-37,-8,-13,28,-127,-8,62,18,-25,-27,-12,13,38,84,-23,52,-20,-3,12,-52,61,66,13,-41,-2,3,75,-28,18,32,3,-38,17,-18,-105,-5,33, 
  /* [3][0][][] */ -40,41,-23,6,9,-31,-108,58,-60,0,-35,102,46,-50,-7,-41,-28,0,-84,-34,2,38,-83,-28,-15,-38,-90,-45,16,-11,80,44,-47,-65,-9,-55,43,5,-34,-2,48,32,-48,17,36,-8,-10,-1,58,21,-7,-31,20,-44,2,47,-11,100,55,36,46,-3,-31,-79,-41,64,-11,-31,11,20,-29,-23,-84,-37,127,-82,44,16,65,-52,48,69,-8,-30,9,80,20,-2,-14,-4,-94,-78,-104,36,47,79,43,-26,-29,19,-109,-67, 
  /* [4][0][][] */ -54,6,-20,29,6,-27,-8,-10,-49,2,68,-30,35,28,14,-63,-1,68,20,-2,-12,4,70,24,18,-19,-8,42,22,-15,-29,32,-14,-67,9,-1,10,48,21,-41,10,53,-54,-83,-45,-55,-51,39,11,8,-10,-27,-13,5,73,-5,-16,18,-45,-32,-14,12,62,6,-34,-14,69,10,18,9,-25,-55,-28,-27,10,-5,-14,35,-38,7,-41,-4,4,14,7,-34,-22,-32,-43,14,9,-45,-68,127,-5,-5,16,26,-54,-67,75,-71, 
  /* [5][0][][] */ -10,49,-29,-87,7,1,-54,-32,-47,-11,4,4,-7,-21,90,1,-35,38,-59,12,120,45,-36,-55,-61,31,-71,127,6,-18,80,-9,5,19,-18,-48,16,21,87,-28,-1,-33,-75,4,-57,112,50,23,14,-90,20,-13,46,84,-36,-32,0,30,-69,-1,-63,-32,0,-38,-77,-79,-38,-15,-86,47,54,16,-12,-21,1,31,-71,9,-122,-41,-36,11,49,25,30,-25,35,47,-32,78,90,67,-27,8,60,-30,32,37,30,92,-11,1, 
  /* [6][0][][] */ -5,-54,-46,19,-7,10,-8,-38,-46,-5,35,40,1,-12,-17,-34,-66,-48,-20,13,84,96,-65,-1,-42,-45,30,-17,-13,-36,-52,0,-40,1,-53,22,7,72,-21,68,-105,50,-46,-27,6,-10,21,-28,38,27,44,15,53,99,-30,45,0,29,-23,15,-73,40,-38,23,-45,12,32,-17,27,42,-15,-63,14,2,70,-54,49,-56,67,62,-44,-42,-8,27,-69,-64,-3,1,20,58,50,79,-34,12,2,-54,22,-1,-62,-80,-42,-127, 
  /* [7][0][][] */ 3,127,41,26,84,-12,36,20,13,82,-17,-101,-64,-76,63,59,-40,-61,34,-71,-74,19,21,45,-20,-82,-12,6,54,28,-83,-28,-79,-62,-28,42,42,-16,108,5,-64,26,-5,88,-89,-93,-59,37,29,-86,-49,-54,-35,-11,42,-47,7,46,-9,-5,0,16,25,41,-28,36,-40,-19,-38,-38,-29,58,39,36,19,58,81,72,44,-32,100,-7,107,61,-8,39,21,32,-102,-65,-13,40,32,68,-12,67,19,19,-33,-82,-21,1, 
  /* [8][0][][] */ 82,69,7,-32,36,-27,-8,-44,-29,-4,48,29,77,-12,120,-79,16,-15,-56,-1,-50,-19,-6,69,-52,66,-71,-87,81,119,-34,26,2,83,-64,2,-13,14,-127,29,-99,-88,18,-13,-51,3,-55,-12,-41,24,-13,-46,-16,77,4,30,-29,39,2,-27,-55,5,1,-65,88,-47,86,36,3,-9,-15,2,-40,-20,9,-26,-43,7,-74,12,-52,10,-64,-22,61,-25,-12,39,9,24,37,20,0,-23,-20,-45,63,-45,8,-31,-78,-57, 
  /* [9][0][][] */ 77,-126,-22,34,32,29,-13,-15,106,73,-39,44,-20,57,106,-67,-64,31,104,-31,79,25,0,-58,69,-30,45,-93,-44,-10,-2,-5,2,0,-25,12,-5,50,37,-6,48,38,2,7,-65,-37,57,-19,53,-90,56,30,13,14,-19,1,-127,28,-57,48,14,40,-5,-7,12,27,-43,64,-65,113,34,48,0,49,-56,-63,-45,-13,5,59,32,-6,50,-104,-41,-73,-19,-27,-40,-36,15,6,3,14,-34,29,40,44,5,-59,118,24, 
  /* [10][0][][] */ -44,23,-62,63,1,-23,-10,6,15,26,7,-66,49,32,40,-23,-7,-32,-56,-16,-8,-4,-34,-37,56,48,28,23,-59,-9,-10,-8,-39,-32,17,27,5,31,-8,-3,-5,-83,-63,-15,-5,-16,-15,-10,36,6,27,33,-51,7,59,-12,5,127,16,-9,-31,7,1,55,16,-14,28,-21,-14,27,-29,-4,-19,-31,5,-41,6,21,68,0,-8,-5,21,21,-6,42,-50,98,-110,-16,-1,-2,-13,-77,-27,-59,-59,-63,3,26,44,-40, 
  /* [11][0][][] */ 33,-3,-3,51,25,3,-57,25,25,16,-15,-13,50,127,34,-32,37,-43,34,-19,-9,-64,14,-6,-38,38,31,-60,8,51,-40,21,-71,64,45,6,-25,7,-61,7,33,-34,-7,32,26,-13,15,15,18,14,-104,-8,-56,-3,-50,-5,-40,-17,11,-6,-18,-11,0,-8,72,37,-71,46,16,-72,10,12,37,8,-4,88,10,-4,12,-24,-2,0,50,48,-3,77,13,-31,-29,11,-26,0,-50,7,41,-28,-2,14,-18,25,-12,12, 
  /* [12][0][][] */ -75,56,36,37,36,-18,81,-10,-6,-5,-20,-15,-25,-50,37,3,26,1,-17,-22,26,51,-3,106,68,61,9,14,-27,37,2,-10,-29,12,-66,16,-32,22,-10,-27,-65,8,-72,14,3,-19,-57,57,-35,-43,-94,-85,19,42,-25,-49,37,-13,-23,-8,11,-10,64,-26,-9,53,56,-10,23,8,3,8,48,65,4,31,39,-35,38,-14,-16,16,17,-19,10,7,-41,5,-14,54,-19,-49,48,10,-36,53,-90,19,-9,77,39,-127, 
  /* [13][0][][] */ 127,-23,46,37,-15,61,-23,-8,6,-43,28,-5,-40,-53,6,35,-13,-4,-63,-28,39,-6,6,-2,-47,-13,41,72,-32,-22,-27,-19,61,-1,-17,-85,-37,-33,-57,-48,-12,4,-87,-20,-5,20,-29,-16,62,-31,28,48,6,34,73,74,9,27,-37,-64,-78,-23,-17,59,-96,2,-102,3,-33,-56,40,33,-20,-22,19,-71,27,31,-97,3,-4,-4,28,37,33,-19,38,48,41,35,-40,-52,-87,-24,69,10,-64,34,51,-10,8,-19, 
  /* [14][0][][] */ -4,-63,-79,76,16,-37,-16,-4,48,-58,49,44,-67,64,-21,31,-100,-88,-127,-7,-18,76,-58,-36,-108,-12,-60,17,-89,69,55,-79,71,23,-43,62,-26,-33,70,58,-13,-6,2,-52,-94,44,-29,-10,27,14,105,0,-28,53,15,8,0,12,-80,35,48,101,-1,45,-20,-5,14,-2,-9,33,-23,-11,-21,-26,20,-117,92,62,38,60,-61,-45,9,-25,22,-20,1,26,23,-3,-3,-49,43,-36,-25,-8,-33,-49,-7,-38,62,64, 
  /* [15][0][][] */ -19,29,-22,12,-60,-29,-23,-70,-2,34,-7,19,114,-39,91,27,14,-58,5,-38,-36,-27,11,34,0,3,-15,3,-24,-7,-33,7,-1,43,-5,-13,-38,-26,-18,-28,11,-26,-127,-17,31,11,5,-14,-8,-43,-101,-18,44,-57,29,44,-37,-44,-45,-41,88,-42,3,-54,-28,57,30,33,-26,25,51,2,-1,-17,26,1,38,44,22,34,54,3,-27,83,-7,-58,-67,4,-41,-90,-18,-25,33,-43,-10,-40,-8,-8,36,25,27,-6, 
  /* [16][0][][] */ 21,50,68,48,40,1,61,-34,-49,24,-55,-4,31,8,0,-3,5,-21,32,84,41,0,20,83,4,46,2,-111,36,23,27,-32,-99,-51,-1,-57,31,-38,-89,84,66,-63,-29,-20,-52,-71,-70,-15,76,86,39,12,-52,81,31,72,-10,-22,-32,27,27,-66,-49,-127,-76,-14,-21,54,-28,-22,44,85,-36,34,11,24,-21,11,69,8,-2,18,51,-26,59,50,31,35,91,34,12,-57,-21,-22,-33,45,-2,-58,-49,7,-41,44, 
  /* [17][0][][] */ 45,0,-13,-35,-4,-21,47,0,16,-100,-2,-6,-19,-47,-16,-34,-8,-62,-16,16,-24,31,39,-12,-5,-16,1,42,25,17,27,69,6,-18,28,-14,20,9,-3,-3,-25,-1,-55,-5,65,-66,1,-1,36,-3,4,4,40,-35,14,-46,57,-39,16,-18,-4,-33,-19,56,-37,2,6,19,22,-46,-23,-20,0,-21,-26,6,-3,68,17,7,-41,-127,-34,7,-70,29,-1,24,26,41,14,-25,-39,1,11,-45,40,-79,39,-22,-18,-11, 
  /* [18][0][][] */ 38,3,-17,2,77,21,18,-2,40,-46,-4,-24,-15,42,-53,44,-59,-7,-50,25,-35,67,-12,35,41,17,12,68,-127,-28,-39,-49,-35,-34,34,48,22,6,-7,-44,-70,-39,45,46,41,42,48,-42,-37,-107,-13,-45,3,-45,-90,32,31,-22,6,-23,-123,35,6,-62,32,-5,-14,25,-6,13,20,8,1,45,-24,-16,-49,47,2,22,53,103,3,64,-98,-20,-63,-34,54,60,-14,-39,16,35,-1,9,65,106,-56,-4,-4,-42, 
  /* [19][0][][] */ 27,22,-60,-17,30,-47,-32,-94,-59,40,30,-33,-103,3,-37,-7,72,-4,-8,-25,48,-57,-1,-11,20,-22,-25,6,60,62,-49,62,85,57,63,-18,45,9,-7,-17,-80,-2,-87,53,-127,65,-23,57,42,37,-34,-15,6,-107,-38,47,-63,-118,-32,55,-34,-7,41,23,43,-32,-94,49,-23,-108,-50,-73,13,19,-29,-7,120,-93,28,-39,34,41,-58,-18,36,-32,-29,117,12,44,-48,15,25,-96,6,25,-61,-5,8,-9,-24,-46, 
  /* [20][0][][] */ -34,-48,20,87,100,-1,-72,-2,8,-16,-35,42,14,-30,-39,-119,57,-6,69,-68,-113,110,77,-50,40,68,-3,-46,78,5,-24,0,-67,3,-36,-79,7,15,-80,-62,-59,-37,-28,-11,36,97,25,-20,33,101,-53,-63,105,48,-92,22,-76,-87,38,18,64,36,11,-61,-46,25,-127,28,-26,-38,68,63,-33,74,87,82,60,-29,-53,-47,-58,9,1,-12,-18,7,-121,-16,-9,15,3,-28,-25,39,-16,21,-53,-17,31,64,94,4, 
  /* [21][0][][] */ 20,-13,-42,65,-46,48,-80,26,-15,14,13,-1,-39,121,-50,27,-37,-36,-13,-38,8,0,44,-11,5,-6,39,6,-34,-42,-23,10,26,-127,19,-20,9,2,8,90,21,32,85,37,-3,2,70,19,29,-26,-14,-14,-39,46,3,-17,-79,-44,33,-47,-9,-11,10,-6,10,-30,-80,0,26,49,-15,-21,-81,-1,-25,-47,-36,8,-76,-14,-28,-7,29,-37,-24,-8,14,-62,25,-10,-3,2,-56,120,37,-19,0,25,81,10,-44,27, 
  /* [22][0][][] */ -8,-22,31,20,-31,-12,-19,-30,-76,27,-64,72,-2,54,-88,16,40,14,-66,-29,-64,-8,19,-1,-120,47,-38,-21,43,-31,-41,-30,1,14,-46,42,-51,-15,-31,-47,-46,107,-13,-28,33,-24,-8,79,9,16,44,-26,7,-10,-21,-18,26,-54,2,-18,-89,-6,41,-48,27,82,7,1,7,14,13,-1,-58,13,88,39,13,62,-30,-39,26,26,21,127,-42,-10,2,47,35,1,11,48,-9,-11,56,6,-5,-20,48,67,11,8, 
  /* [23][0][][] */ 17,-11,27,29,17,-34,-21,21,-8,14,13,42,-6,-19,36,-46,19,-25,15,-35,-15,-1,-25,58,-48,10,-42,36,12,-13,24,8,16,31,4,-30,-23,-12,-51,3,-4,-14,31,-23,-34,45,19,-13,14,-18,42,21,-10,14,-30,-12,-17,48,17,9,-23,9,-2,-127,-2,47,8,1,-15,28,-39,-6,-9,-12,-34,-25,2,-29,18,10,-31,-9,-48,47,22,-25,-17,-37,-48,-7,-19,23,5,0,13,14,-1,24,-14,-29,13,10, 
  /* [24][0][][] */ -35,12,30,15,5,-69,-6,31,40,39,-54,-6,46,48,-13,-6,22,73,15,-50,15,-42,74,-120,-19,-3,7,28,-8,-10,-29,-10,11,85,36,25,0,-28,31,-2,19,6,-28,48,47,2,76,18,23,-5,8,-2,-7,-37,-46,-60,-41,-105,-67,-42,-25,-27,38,112,127,49,-2,14,-47,6,16,39,61,4,-76,-25,-13,-26,-80,-33,31,37,27,9,-24,89,-72,36,9,9,6,28,28,24,-47,11,-87,18,23,-59,43,-19, 
  /* [25][0][][] */ 67,-16,1,-5,-7,6,-36,-4,-45,90,-24,53,-88,-24,74,-16,59,-15,13,-42,-127,94,-60,-65,19,46,22,-52,-33,-31,-28,46,-17,41,-88,-39,-31,1,51,-9,-99,41,35,-33,61,-18,-23,113,67,-5,38,-56,1,20,83,3,29,5,11,5,-104,-48,119,44,89,-29,62,45,-22,44,63,46,90,-15,8,112,-54,-80,-51,56,53,-85,18,-108,67,32,-67,-19,-112,-60,29,-44,-23,-35,-75,16,9,1,-22,-43,-98,16, 
  /* [26][0][][] */ -48,17,0,-28,-63,45,7,39,-127,-18,-15,39,-22,-13,38,31,-19,27,-40,-22,53,72,19,-115,-20,1,47,34,-4,-47,-10,29,10,18,-70,-12,57,54,-7,-39,-3,49,58,0,-35,3,36,-17,-12,-27,-50,-40,0,3,6,-39,22,-14,-31,5,-48,-72,-30,-48,36,23,-20,-30,33,-48,55,-19,51,-12,-3,-30,97,-57,-39,35,-19,-29,-10,17,18,72,3,14,-8,16,-3,-23,16,17,-33,14,5,13,0,29,67,22, 
  /* [27][0][][] */ -42,-21,-56,-8,-29,-3,16,-16,-75,-81,-12,-61,-30,-70,68,-127,17,3,-29,-30,47,-12,26,-11,-23,64,-5,-39,-11,-22,12,71,-45,15,11,-25,-15,28,-37,24,-11,12,21,-23,-11,36,85,-19,-5,-69,-11,30,13,12,-22,9,62,-57,-6,2,-3,30,-13,8,30,54,10,15,0,-19,70,-6,-49,76,26,24,25,36,-86,16,15,-54,35,9,-10,12,-11,9,29,-36,-46,-71,10,25,19,-35,-4,6,30,-27,29,-37, 
  /* [28][0][][] */ -3,27,-13,-35,51,-43,26,-11,-86,40,-8,8,2,24,18,14,-56,7,20,10,-86,-49,27,-127,55,2,-66,0,-6,9,31,-19,-48,28,-35,29,-21,35,25,52,-22,-57,-97,10,55,51,3,49,113,-10,-6,21,-49,-1,14,20,-22,-14,-18,-52,25,22,69,-95,9,-77,32,85,-29,14,-56,-39,-62,12,33,-56,-49,-9,-66,102,-75,1,44,-6,-35,74,-17,-42,-41,-34,-24,-40,3,3,69,-52,-17,35,-102,-40,-18,37, 
  /* [29][0][][] */ 67,-12,28,-49,-41,102,-4,58,26,-11,22,-20,70,-30,12,27,-7,-7,25,-55,-24,-31,-50,3,-83,-24,12,-8,10,127,-56,30,-74,-21,-1,-22,15,4,59,-46,39,-26,108,-102,-54,92,5,-36,-20,12,97,16,-101,25,-89,-11,-36,-42,21,-11,40,-15,-40,-41,1,26,89,-21,38,-6,-58,48,-17,23,11,19,-14,12,51,29,22,-39,13,7,-19,-23,-4,-22,52,10,-44,-10,38,54,-4,-28,-14,-6,-67,26,-23,-16, 
  /* [30][0][][] */ -91,41,-89,-37,-1,-50,34,28,8,-36,-19,-20,-45,4,36,14,-51,24,-17,-14,-4,-53,-82,-64,-21,-84,12,62,78,-56,-12,26,42,-43,-4,37,-20,5,-34,76,63,29,-127,-23,65,7,-14,2,-83,80,-50,13,22,4,-32,-1,-7,-9,15,34,-57,-22,-43,-24,23,-19,16,-60,59,83,122,3,48,-40,-79,10,-15,27,-81,-11,19,22,-18,16,20,-26,93,3,3,34,49,-10,-93,38,-11,2,-2,56,-85,-79,31,22, 
  /* [31][0][][] */ 15,20,58,21,45,53,-62,21,24,-27,37,56,57,-18,-20,32,5,-35,-33,-21,38,-29,62,31,-32,16,-12,-39,28,-18,18,-2,-62,8,-16,-42,-25,27,39,-49,-2,127,-19,-73,13,1,30,-24,-8,-46,28,19,-34,-26,25,-15,-15,-34,16,22,85,8,-6,-63,-21,70,39,-19,-5,20,10,-47,-3,-37,2,9,-23,-83,-26,-23,11,12,17,31,-1,33,-9,-14,51,-3,32,-27,10,8,5,-13,21,-24,-18,33,1,-29, 
  /* [32][0][][] */ -32,-21,0,0,-34,-29,5,46,37,14,-17,-3,-25,14,28,-9,-27,127,17,-30,45,20,16,4,-14,33,-82,-6,-26,61,7,18,-35,-36,8,-38,-36,32,-25,31,-22,-52,-3,21,-109,-53,4,-23,47,-24,-3,5,8,-32,-23,1,26,17,-5,-12,-48,-1,-39,-24,-35,-66,-37,-28,-5,-22,23,-23,-85,-1,21,-15,-6,-54,30,13,-62,-21,29,15,3,-12,26,-18,-17,-45,55,-14,16,-47,14,-46,-22,-18,58,-18,96,27, 
  /* [33][0][][] */ 8,-91,-16,11,-60,-28,41,-28,-86,-37,-15,35,-10,-3,-14,7,-50,-2,1,-27,-28,20,-55,-57,-63,35,1,-4,44,-56,-19,-68,-28,-37,0,73,-12,60,23,-5,11,-68,-25,-22,-12,13,3,81,-31,5,1,14,-53,67,-63,7,-36,23,-33,18,29,40,65,-72,45,37,24,55,-28,30,24,24,7,55,-4,-127,16,-102,16,-31,-17,-121,-4,-5,-30,-9,-4,-29,-15,29,19,-26,-25,44,-6,-24,43,-15,-17,32,57,-68, 
  /* [34][0][][] */ -20,-9,-55,-33,83,-23,-1,-2,3,13,20,-110,27,-61,-44,21,21,13,-6,-34,7,13,0,-15,-7,31,-37,48,-100,56,20,-51,-38,-75,-119,25,-30,-23,15,40,8,21,2,28,-1,-60,-127,-31,32,-2,-6,7,29,-12,-48,-58,103,-14,2,-2,35,49,-22,7,6,-37,-19,-35,-35,42,32,-34,26,18,-13,9,-52,1,42,17,44,-42,-22,71,8,59,-8,-18,-74,-12,-13,14,-13,53,42,-32,-25,-73,-50,-17,72,23, 
  /* [35][0][][] */ 43,-30,0,-24,36,31,-19,-40,100,-23,44,56,-12,-1,56,-20,57,-7,-47,-1,-20,-14,-22,69,-24,-63,-15,46,-48,-29,-44,83,-30,40,43,29,127,-49,18,-65,12,19,39,1,-10,-23,9,78,56,-8,41,32,-4,9,6,-81,4,61,-16,-3,-55,44,92,21,35,-38,-16,7,2,13,1,12,-52,58,37,-22,-76,7,-50,1,-75,57,-13,-23,-45,26,22,21,24,-4,17,1,-30,47,15,-13,26,13,16,12,-46,-108, 
  /* [36][0][][] */ 11,-67,28,1,-22,64,22,8,20,-37,-78,3,-22,20,-3,-97,62,127,-44,-50,-6,71,24,-63,-47,8,-51,35,10,-68,-14,-34,-77,32,11,-5,13,-54,-38,-86,-63,37,-38,-26,2,-32,-10,-29,8,-47,56,88,-33,-76,-43,-65,-30,23,22,19,43,15,9,-54,62,-81,21,34,-13,15,-36,-41,45,-4,42,2,50,30,-17,48,-76,1,17,43,-7,-25,-49,4,85,10,-52,3,26,-7,-51,-42,-45,58,1,-32,-20,19, 
  /* [37][0][][] */ -6,-2,-23,100,83,16,-41,52,4,-127,43,8,26,75,-12,-25,9,18,42,-5,32,48,-65,-60,123,-70,-53,7,31,-52,19,-35,-38,40,63,-16,10,-86,13,-17,-45,46,-17,75,21,-50,34,6,-53,-10,58,4,-31,44,-18,57,13,-29,-45,-47,30,21,49,-70,-61,24,35,-36,8,-55,-92,66,-113,-35,-2,10,-56,-27,15,-7,66,-8,65,0,44,-57,-75,108,30,110,-37,35,-26,6,-14,-118,-39,-23,25,-82,99,-12, 
  /* [38][0][][] */ -28,43,-57,-27,-84,76,-30,10,-12,-2,-9,46,-8,65,76,127,-8,-32,-29,-28,29,-65,-56,-39,-17,8,19,-37,65,-89,-94,-23,47,15,43,99,20,-6,-69,6,-6,-44,15,-4,2,17,-44,54,26,-22,-19,47,56,-37,16,29,-87,60,-10,-5,-21,14,30,-57,-11,-24,-75,35,-4,13,-36,-34,-94,-25,11,70,17,53,80,11,32,-1,60,-84,-85,-6,-18,-57,84,34,-29,-43,29,5,29,4,-98,74,17,-65,-1,72, 
  /* [39][0][][] */ 46,51,13,6,62,-31,23,-52,66,33,-31,-38,-15,-39,3,11,21,-24,-5,-44,-81,83,-97,-42,14,-8,-65,39,-59,50,-78,14,-101,-15,-90,30,55,-25,-20,-32,68,-6,20,63,-47,-36,-44,-10,-64,-119,40,34,107,5,63,5,31,35,38,13,-64,25,-16,25,70,27,7,12,16,47,-39,-66,11,79,52,34,55,-76,7,-54,26,-48,-102,16,75,11,28,-3,127,-120,-46,-8,-7,-9,23,-64,32,83,18,-2,60,21, 
  /* [40][0][][] */ 35,21,-93,-80,44,16,-53,-55,-71,25,59,-74,-16,-4,24,-38,12,28,63,-22,14,28,53,36,-19,15,-16,37,-79,24,4,-76,68,-44,14,0,-3,7,-16,4,3,7,-60,30,-2,-89,-7,-13,17,-107,69,-37,10,-18,-63,44,-31,5,-19,-38,-15,21,11,2,-63,49,-49,3,29,-3,-31,50,26,14,-30,-50,17,-34,-34,24,-18,19,89,0,-13,-89,-17,-11,127,-22,-56,-10,-76,49,30,26,-25,-71,25,87,33,19, 
  /* [41][0][][] */ -17,38,-41,95,-77,-48,50,37,61,0,20,-55,-95,-14,-25,-16,57,-47,-4,-57,45,40,102,25,-34,25,-96,31,-51,41,22,-40,-7,102,-95,7,39,61,74,45,-73,-73,-56,-62,62,-74,51,-2,-38,-107,2,41,0,-108,-86,-6,109,0,123,50,-24,37,55,-72,86,26,-105,96,73,23,12,43,-10,75,23,48,-79,-24,-22,17,-99,-63,30,-84,-42,-127,-14,123,-20,79,37,-7,25,119,-92,13,45,-76,5,-5,34,-27, 
  /* [42][0][][] */ 13,-1,-38,-11,-17,-3,-28,-66,2,-68,-13,-19,127,22,23,-16,0,25,-25,1,12,8,10,-7,11,-41,-60,-17,-19,-32,37,-1,30,64,18,-36,17,-9,-44,25,31,-10,36,41,44,69,12,-28,36,-89,12,-14,73,36,21,-39,74,31,-19,-53,-16,9,28,3,41,20,19,-34,-35,51,-25,4,15,-18,1,-15,84,35,-49,-22,24,-13,15,-26,-48,-75,-13,4,-21,8,0,-39,0,-19,-14,10,43,-33,2,-32,3,5, 
  /* [43][0][][] */ -24,5,-2,-100,-12,-24,8,58,48,51,-49,26,105,31,0,-67,83,15,55,-45,10,-74,-29,-1,14,38,71,16,54,-57,30,-95,-48,-34,-52,-5,-43,-32,37,22,37,81,37,-19,-73,50,127,-4,-59,44,56,-32,-20,-21,79,106,-7,-100,36,8,-101,16,5,11,-23,1,-26,3,-15,-17,13,-61,-47,23,36,-29,-32,51,4,-8,-73,-58,-57,-9,38,-7,9,89,-55,-10,-37,-51,-82,46,-27,-8,54,-111,15,-31,-41,62, 
  /* [44][0][][] */ 18,-65,-21,54,-29,87,9,-14,-43,20,2,-78,-86,5,-67,50,93,124,77,-63,94,82,-9,-17,56,35,-42,-12,-19,-38,31,-9,36,-6,-4,55,-36,113,-79,-109,-38,65,-21,-21,40,19,4,50,-127,20,28,40,38,-17,-57,-35,55,-45,72,41,-61,13,46,73,68,29,-30,-49,-74,18,66,-29,-30,30,4,-38,71,35,-77,-14,-36,50,-4,-57,67,-28,-11,33,95,32,-45,-56,-10,-59,-54,78,-49,3,-17,-59,52,-103, 
  /* [45][0][][] */ -25,9,18,82,3,10,-41,2,-104,79,3,-20,67,-73,-30,68,-27,-25,126,8,127,36,27,21,49,19,-21,-92,43,40,35,81,-5,-1,-25,-41,-47,21,2,0,45,-44,-77,52,35,-66,-39,-56,-1,-9,10,-14,16,45,70,-35,34,-27,90,53,12,-50,5,85,-59,46,81,62,26,8,-37,20,-1,-43,16,-40,-12,-73,-8,13,32,-20,108,-6,28,-13,11,-3,-29,11,-61,-49,85,92,-77,-18,-23,0,-39,-22,73,-51, 
  /* [46][0][][] */ 7,-56,19,-95,-42,-29,-17,-47,107,43,-4,35,7,52,12,-25,-28,41,28,-25,-17,-22,41,-4,31,-6,-11,-36,-38,-55,60,53,-62,-71,48,46,34,-96,-41,71,101,-19,18,-47,0,52,21,22,-4,-108,10,-23,78,-3,-22,87,-41,-37,-55,49,-13,104,-19,-14,-58,28,-81,-47,-53,-6,-23,-11,-5,-45,13,-20,-1,4,41,4,51,-80,-58,36,48,-102,127,-95,15,36,-15,-3,-11,-8,93,1,16,20,28,-117,-7,-18, 
  /* [47][0][][] */ -34,-15,1,-71,24,-31,-52,19,-9,85,46,-11,-23,55,-3,20,19,-38,-58,-33,127,-8,-55,11,-11,-59,24,8,8,-23,-25,16,-22,-27,50,-26,-20,-73,39,-56,20,0,-42,16,4,4,-50,5,-1,-15,6,-41,-29,22,-24,-114,-3,-4,20,7,-81,9,51,-26,11,-5,75,53,0,9,59,1,-52,-19,52,-8,-2,-125,1,-4,-44,35,2,-10,-30,-63,-8,-26,-67,-38,53,-31,-29,24,-25,72,-4,23,36,-2,111,-13, 
  /* [48][0][][] */ -5,-21,91,11,-19,-54,60,40,3,-25,37,41,13,11,-61,20,-60,-80,-64,-84,-32,-14,-47,4,45,46,-27,-32,59,-24,124,29,47,44,-13,-52,-35,-80,-28,-33,-18,-15,-3,28,-48,118,63,42,-54,67,-9,-8,4,-46,-31,14,-44,4,-31,20,5,8,-34,26,7,21,-28,-23,-41,-1,-20,2,-18,58,2,-52,15,65,-72,-5,-50,15,-4,24,48,11,34,-14,54,127,-61,2,17,-6,65,35,-56,-32,-45,-22,-28,-55, 
  /* [49][0][][] */ -39,-50,12,-9,-39,-16,-50,-1,3,-28,-1,-54,-60,26,-28,17,-12,-13,-53,-64,52,-41,49,-25,-23,-7,8,47,-20,12,-59,-30,36,30,-82,-8,32,39,3,-127,8,-23,9,10,39,20,-26,11,-6,-49,42,-2,8,8,-7,-6,-16,12,-22,-4,-43,34,17,-78,-41,22,-34,-31,31,4,-38,-39,-29,-1,-1,58,21,-8,12,21,-14,47,-24,-10,-4,-15,37,-23,-2,40,-37,-50,-72,-51,20,-36,-19,-46,14,-38,-23,-14, 
  /* [50][0][][] */ -16,-4,42,64,-10,-82,-3,3,-19,59,-39,36,4,32,-30,-33,126,-66,-72,2,91,-89,11,22,106,-52,-42,-14,49,-11,22,13,-9,-50,-31,-4,-10,-20,-30,-40,6,30,8,19,-95,52,36,-66,22,-37,127,-66,-4,33,-55,-1,0,3,-4,28,-11,40,-64,-21,27,-38,48,62,-84,-49,1,27,0,-24,7,-30,27,111,-15,12,-15,-37,-3,-34,13,-10,-4,-52,-21,29,-22,-11,-11,-43,12,4,-22,-40,30,40,-19,-74, 
  /* [51][0][][] */ 13,25,-44,16,9,-36,0,32,37,12,-3,-81,-30,-22,-4,-2,31,20,18,5,29,0,43,-8,14,48,16,48,17,-20,18,7,-31,0,-3,-37,13,-33,14,-33,-31,-7,19,1,-2,-23,-5,-8,-23,-3,-32,-48,-39,63,36,45,63,11,1,15,-32,1,10,45,20,36,-37,-6,46,14,25,12,17,16,25,26,-18,26,-2,-20,-50,8,-33,-18,-59,-4,-41,-35,1,9,-24,25,15,-7,-15,21,-25,-37,-127,-37,35,20, 
  /* [52][0][][] */ -33,-25,28,33,-42,-39,29,-51,-68,-58,-33,41,-23,-32,127,19,-20,-35,-1,-32,-23,-61,-7,-92,-10,-26,26,55,6,-4,51,12,5,-31,-38,8,38,-51,-26,33,-28,-22,19,-60,7,-23,-15,1,-9,-90,41,-19,17,12,-32,-3,-10,15,-41,-65,97,28,8,2,-81,-39,-73,29,-75,-90,114,26,-48,23,-23,-34,22,23,70,25,-24,107,26,90,6,59,-7,-53,52,10,52,9,-26,22,41,-38,0,21,-27,75,-62,-12, 
  /* [53][0][][] */ 55,-8,10,111,50,-5,66,53,55,22,61,29,42,4,-102,-2,26,116,19,20,14,44,30,-13,72,-26,-13,-3,31,39,-63,76,104,1,-77,-33,11,-34,-68,-50,-67,-8,-48,30,-3,53,64,-12,-26,53,-62,85,-40,37,-127,-15,83,18,2,-58,-41,9,22,16,4,37,61,54,69,34,-3,19,33,26,-16,14,-19,-41,12,-12,-53,51,-21,-7,-8,-25,-41,-5,-42,-83,-5,18,-15,68,-13,100,40,1,14,47,41,-79, 
  /* [54][0][][] */ -73,-127,-33,8,-25,54,26,-40,-36,-16,19,17,-32,1,8,31,7,13,16,49,46,-25,-26,-7,14,-56,19,-20,-27,-15,87,27,-66,-5,-13,-10,33,-50,8,-11,36,-19,-16,32,-7,-23,-17,18,-10,-48,29,-6,7,-12,-8,39,9,26,-2,-10,-6,17,5,21,-51,32,-13,28,-36,2,8,-16,-102,-19,17,-41,-33,10,41,-52,-2,-39,-18,29,-14,-41,47,49,3,37,-59,-14,-15,12,66,-10,52,25,19,-26,-54,9, 
  /* [55][0][][] */ 1,-12,59,6,78,-46,-45,-19,24,-29,-35,-42,-4,-40,-55,7,-31,-18,-7,-30,-53,79,-76,30,112,7,-3,46,-7,6,8,-11,2,16,49,-72,-3,16,85,8,-13,33,-26,16,45,1,-30,-51,-23,-46,-16,-46,6,-49,41,-53,33,-7,19,-12,-38,-6,32,1,-24,58,-71,-9,-45,60,25,-83,69,-32,50,19,-4,68,-14,30,-36,56,28,39,-27,7,-17,-7,55,-33,-7,-56,-34,-48,-61,-41,43,-16,127,-31,30,-36, 
  /* [56][0][][] */ 16,-17,-47,-33,74,-6,15,-6,3,-51,31,32,34,-25,68,-10,-14,-32,-49,-18,-23,57,-36,-6,-63,-7,15,-11,-30,-25,0,36,15,-33,52,-2,13,-24,3,43,-19,-23,24,47,-1,-51,-27,6,26,-87,-6,38,41,-3,15,-37,-6,-28,5,36,12,6,-28,11,11,-46,127,-36,-36,-43,17,13,-17,45,-31,-26,-16,-4,15,12,-36,5,-29,8,-28,17,78,31,-45,68,12,-18,-3,-4,13,-56,-45,50,-54,-29,24,-42, 
  /* [57][0][][] */ -43,13,34,38,14,-19,127,51,-85,-99,-14,49,-11,-8,35,-106,-33,-58,72,40,-55,-12,-61,59,-38,-8,-84,56,-46,7,-44,6,36,-7,-27,56,-32,-103,-2,44,96,-29,-72,13,-32,17,-50,20,74,-22,61,7,34,-24,-79,57,-7,-76,-24,-1,-13,10,0,-52,-23,1,-57,84,12,22,32,40,8,49,11,-51,52,-11,1,-43,-61,60,-29,15,-49,-56,-37,-46,-5,17,-19,-27,-10,51,7,-26,10,62,62,-36,-18,-98, 
  /* [58][0][][] */ -8,-17,-12,-35,-36,-10,36,-10,-56,-44,4,-40,-1,-12,-20,28,-9,-10,13,-13,-36,36,3,30,22,-6,-2,-29,2,-29,63,42,-30,-20,21,-5,-21,-69,12,41,-12,35,-4,-19,-11,-18,3,13,-36,-28,7,5,19,-7,-14,33,17,37,-42,4,-16,25,10,-26,48,11,15,8,-15,30,11,12,11,-37,-28,44,-5,-51,45,37,-127,67,68,11,37,25,8,-22,-12,21,-3,-13,-26,36,1,41,-3,-24,-37,-32,-16,-13, 
  /* [59][0][][] */ 74,33,54,-89,13,-58,-34,-16,3,-54,-23,83,0,43,14,-61,-4,20,14,54,47,-127,-30,-42,40,37,-39,-31,-36,24,-22,-3,58,-25,-18,-28,-67,-18,-53,-31,10,59,44,-95,63,41,-5,-44,-44,-108,51,-52,-11,52,-18,-5,17,-11,38,-51,-88,21,-18,4,68,2,23,-1,-34,31,59,-50,19,5,-41,-77,10,35,42,22,10,35,73,82,-14,-20,-17,5,-52,44,-33,23,16,57,11,-1,-56,-53,-78,72,-6,31, 
  /* [60][0][][] */ 15,-50,29,34,57,3,7,-14,59,-12,28,25,-35,-30,-23,-44,21,0,9,81,2,-32,-27,7,-103,71,-24,19,-9,61,20,-14,-24,42,-20,28,-105,-51,-19,-14,-71,37,-18,-16,-34,52,41,17,-37,-7,-77,34,51,63,81,1,121,23,-79,-5,-63,-33,1,-34,-44,-27,15,2,30,-10,33,102,-29,-48,55,-58,-4,-7,-65,-53,127,-2,-14,25,17,13,-52,-78,-51,9,47,-43,58,-1,-3,17,1,-46,-45,3,1,44, 
  /* [61][0][][] */ 1,-5,-16,-18,56,-44,-47,-13,8,50,-14,-9,35,23,-31,4,-3,-32,-62,-49,53,-26,84,-8,37,28,53,-63,-12,-21,3,-18,31,45,38,-5,-43,-3,31,37,-13,-39,-51,-127,-85,-63,-18,-38,64,-15,28,62,-19,19,8,39,-32,48,-11,-27,-29,24,-19,-60,47,1,-74,-53,-9,44,9,70,-13,37,41,21,23,34,-21,-27,-36,-23,-3,0,53,-41,29,-23,-41,-71,4,-1,-19,-12,-34,-16,42,-19,-8,-9,64,-47, 
  /* [62][0][][] */ -12,-5,-33,18,-3,-3,77,-11,0,-19,-25,12,-14,-30,31,-40,73,-85,-69,-73,-41,14,-8,23,-57,57,-67,29,-127,-32,-33,36,-16,22,-23,-82,-17,-53,-43,64,17,-43,-37,90,-7,-2,15,57,123,-21,-57,-35,-66,-30,31,15,-94,-11,94,49,-64,-17,79,-71,-116,-57,-59,-4,38,-29,54,18,25,22,-78,-59,-36,46,32,5,-14,-7,25,-34,-50,-26,-101,-91,12,-13,27,-33,76,9,49,-12,-44,42,102,17,61,-30, 
  /* [63][0][][] */ -9,-25,-106,-78,-39,-30,5,-30,-31,41,66,-36,-40,48,79,-39,-18,-98,20,16,-103,-36,40,21,-39,48,-68,61,127,29,-36,20,43,27,-16,74,102,20,-12,69,-34,-32,-33,-115,20,29,-88,76,-46,-93,31,-26,-56,-66,-24,-33,-52,-31,47,41,26,23,10,-15,59,-94,-30,3,-25,-1,82,-11,-2,85,-5,51,3,-6,-41,53,59,-117,100,71,-53,29,49,92,0,-47,6,-25,-28,68,-1,-24,-84,-55,-13,17,-60,-17, 
  /* [64][0][][] */ -67,-19,41,45,19,-13,-44,-19,-28,-20,19,-9,8,-40,-123,25,-41,17,41,17,-62,-37,3,-34,9,15,30,12,3,-13,-12,4,-11,56,33,19,25,79,-23,-23,-15,4,-17,-39,-10,39,-23,30,-8,-38,26,21,8,-68,-127,-51,40,22,-34,-19,-26,-4,24,51,-21,20,-37,-37,-29,25,9,0,48,-14,-38,-49,8,-51,22,-26,-45,45,-45,0,8,-5,6,-85,-2,54,30,18,16,33,-27,-24,16,15,14,35,-37,61, 
  /* [65][0][][] */ -46,93,40,-1,-29,46,31,-74,2,31,-12,-73,1,-19,-21,-8,-75,62,72,33,-15,0,-18,57,-55,-21,-7,3,-84,-34,-40,-34,8,57,59,9,46,25,-41,18,-42,-37,56,68,11,-34,-6,6,-48,-22,-62,45,-25,-10,-35,-66,25,-6,127,80,-72,-29,0,5,-13,48,24,55,-16,-8,-32,-4,-29,28,52,3,-14,43,-30,30,-45,42,-62,7,-43,36,21,43,58,24,-70,79,-71,12,-37,37,-31,8,40,-69,-40,23, 
  /* [66][0][][] */ 20,-106,45,64,-68,0,30,-14,68,9,-60,40,82,-78,45,-53,-17,7,-15,-56,19,31,-41,22,127,34,38,-22,5,-33,12,-28,50,-22,-9,115,-67,-97,-37,-34,27,57,36,34,50,12,-63,32,-78,-26,17,-13,-60,29,29,-42,26,16,-29,18,24,117,68,19,38,63,3,124,11,-47,-28,-18,7,-26,-8,-62,18,-41,-38,-21,9,-54,-71,-30,36,63,4,65,-67,8,-57,-13,13,-39,-43,14,-3,40,8,68,-7,-30, 
  /* [67][0][][] */ 57,89,-43,79,-16,-79,38,25,-25,53,4,37,-27,50,79,9,28,-5,40,7,5,58,38,-43,0,37,42,8,26,-104,127,-36,4,-24,-27,34,22,38,-55,-18,11,-42,-42,-30,54,21,-15,92,13,16,-29,-6,20,29,-2,-49,31,-11,18,-17,-13,-41,25,-44,32,-7,59,24,-54,10,-10,-7,-66,52,11,-28,26,35,-34,12,34,-2,0,-4,5,-89,6,-19,3,-56,-18,-64,-74,-16,36,2,-35,-23,-51,49,-73,-94, 
  /* [68][0][][] */ 9,22,-17,1,-35,-53,-56,-14,-59,19,46,-7,-74,-5,-19,-60,27,-12,14,-34,11,-35,-76,-24,15,-36,18,62,-127,-27,14,-28,-31,-48,30,26,49,-28,-19,-2,-7,16,-39,-19,49,-75,38,23,4,48,46,-24,21,-41,16,-9,66,32,-58,-32,-38,-30,-3,-40,-36,-6,29,6,-29,-15,-4,13,31,-7,27,18,49,58,10,26,29,-8,23,16,-34,19,33,11,-38,-38,16,-9,22,22,29,40,-17,23,-51,76,-2,36, 
  /* [69][0][][] */ -8,105,32,-73,10,-8,-9,56,-2,32,29,37,-36,38,5,0,61,90,38,-29,112,-3,68,83,60,25,104,-71,3,3,-11,61,-29,-6,-69,-48,4,-5,-83,-89,-103,88,-80,-10,-15,-41,14,34,88,108,25,59,13,-73,-127,-27,-102,-15,29,54,13,-16,48,8,62,-41,11,42,-28,35,-33,-2,10,6,-32,91,-44,26,-5,8,4,29,23,-25,-53,56,-24,-23,-7,39,82,-49,63,-36,-10,-80,72,-40,44,-85,53,-62, 
  /* [70][0][][] */ -53,-11,66,8,-58,127,-7,-49,-38,-25,-8,-40,-46,-61,27,-5,-12,-15,-56,36,3,-66,-21,24,-15,25,-79,20,-5,16,-7,-4,-54,-1,93,-12,1,13,-30,-16,-19,-16,50,-96,14,-31,10,19,16,-67,-29,-3,56,66,-30,-14,59,-72,0,-41,-79,-12,16,-26,-32,13,-60,29,7,-14,1,-19,19,59,33,38,81,9,-3,24,-8,-11,-22,44,23,-30,-25,11,-80,-21,-37,-13,-34,38,5,19,32,-33,8,-50,41,-38, 
  /* [71][0][][] */ -37,-25,8,86,11,8,-5,23,-34,52,12,29,-84,79,9,-1,-9,100,-45,-38,57,5,-87,58,-16,14,36,-43,71,-113,-47,-12,-50,46,-9,-35,9,48,1,14,56,-127,42,-4,40,15,41,-12,9,-20,14,3,35,-48,27,56,25,27,29,-51,-53,77,46,-32,-9,30,-20,18,39,0,-11,-33,56,-40,87,69,11,-26,-77,39,14,-1,37,37,-3,-32,-11,-34,-53,23,15,-29,38,-55,69,86,0,-100,14,-37,-47,-18, 
  /* [72][0][][] */ 15,92,-14,39,-5,32,-43,24,-44,-84,-19,8,-14,-51,-22,-43,12,8,-19,0,25,-35,-3,18,-19,-2,14,-14,38,-19,-69,47,2,43,-10,-29,2,2,8,-60,83,-47,-68,-14,19,-42,-102,118,-46,6,-36,-127,38,15,-60,-102,-11,41,-43,-39,-9,-42,116,10,62,60,-11,-28,-58,2,75,2,-13,10,-2,-8,-68,23,-9,-46,-13,62,28,-18,-25,-21,-31,4,-17,10,-8,-2,60,-49,0,-10,-12,22,8,7,78,11, 
  /* [73][0][][] */ 12,-91,-8,11,27,7,34,-19,90,-102,-45,-17,9,-4,-9,31,11,-50,85,-11,9,30,39,-100,43,-17,4,54,-36,-65,-85,94,-13,-13,44,23,-27,4,77,-20,-83,39,110,-15,-25,51,38,87,-24,12,-40,40,-36,27,65,-8,75,76,47,-20,-62,-9,127,-34,-81,96,10,41,46,-58,-49,-6,19,34,33,12,43,-46,49,69,-29,-33,-8,23,18,-73,-49,8,-59,24,-72,-27,4,-89,-28,41,-50,61,70,95,28,12, 
  /* [74][0][][] */ -98,17,42,76,-16,-18,35,45,25,103,-24,-16,-64,-14,-58,-15,-5,16,-54,-83,3,-90,2,-14,-30,67,-54,-57,4,82,-53,14,-16,57,-29,-43,-49,-71,-25,23,34,31,7,-10,-6,118,31,-78,83,-27,-1,45,-17,55,-47,-1,30,58,-37,-32,11,-44,-121,73,-16,127,-3,-4,111,39,-26,2,-9,28,6,47,45,-59,-2,-7,24,-18,34,17,33,27,-14,10,-65,-8,2,25,-2,18,-34,61,3,-10,4,19,-70,59, 
  /* [75][0][][] */ -37,29,-83,5,3,53,-9,-64,11,77,-39,21,-26,50,98,-127,18,0,-10,24,16,11,9,23,5,10,66,-6,56,101,12,25,-49,-108,-48,13,-81,55,-84,20,63,11,-41,17,1,-61,31,5,-72,-78,29,-27,-64,-48,35,-116,-12,-17,8,18,-77,9,8,-91,27,40,-73,-23,-10,-37,-2,65,25,11,14,-9,-22,-21,-46,-38,-54,72,5,30,11,-58,-47,33,-95,-24,-2,80,-1,16,-12,6,39,61,-33,-68,10,-80, 
  /* [76][0][][] */ -18,-11,24,13,-9,-42,-19,-23,41,-51,63,-49,-60,30,11,-22,-53,49,-15,127,31,44,55,60,81,26,-58,39,88,-79,-17,50,21,38,-51,-36,10,-15,-75,26,80,31,-4,-16,-83,21,-1,-49,28,-33,-8,18,12,-63,2,7,41,54,-39,42,-116,27,-41,-47,-40,-68,-109,40,23,-6,-38,106,101,-22,-27,-27,-10,-119,7,-7,-66,-9,-2,-70,-29,-51,35,-81,-22,-2,-31,12,-20,-9,-40,-72,30,-8,-34,-49,14,-33, 
  /* [77][0][][] */ -34,-53,40,-91,15,55,18,-30,-49,39,39,-10,-100,-34,53,-49,-6,-127,-117,83,-11,8,-66,-81,99,-18,76,-55,30,14,59,-50,2,-111,-16,35,-64,44,-15,4,103,38,66,25,39,0,-24,98,46,34,-61,-27,65,-11,-11,92,49,-43,77,6,89,-7,8,31,-17,-42,7,-78,52,-114,29,13,-77,-8,33,-28,12,-49,-70,-1,-31,-120,12,11,-64,-52,26,3,-3,-35,-53,-2,-42,42,76,-33,-27,59,-2,106,-53,23, 
  /* [78][0][][] */ -36,32,-16,-23,85,-30,-16,-59,-26,-42,7,21,-54,-44,0,-26,-44,-21,-2,-127,39,-56,31,-21,-75,31,70,47,27,-40,15,-60,14,32,8,-36,-14,8,-89,-87,-33,-10,-8,-1,7,106,-17,32,32,-14,10,-25,54,-77,-41,-17,-47,-15,42,21,12,-8,33,85,-43,20,-36,47,-20,-6,-17,49,3,-22,42,-68,30,33,-6,9,-15,-48,10,-38,-32,-40,-32,-13,28,-42,-16,76,-38,57,-16,24,-11,-40,-21,-35,0,-19, 
  /* [79][0][][] */ -76,45,12,-18,12,-44,1,-42,-65,3,67,4,22,-24,6,78,29,50,33,-64,37,37,-51,-21,-42,-34,-6,10,-1,-9,-12,-51,-47,53,-13,1,-30,-80,-67,-38,28,59,-9,8,-73,6,29,21,-105,8,53,15,-6,-30,10,-55,22,-8,-1,29,41,-16,-21,2,-15,26,-4,-66,-51,-1,-35,-19,15,-26,69,47,60,40,5,-32,-99,52,-17,14,-12,9,-57,-33,-14,-66,1,-27,55,59,15,-127,-50,-21,6,25,-106,1, 
  /* [80][0][][] */ -1,-31,28,-49,-38,0,-38,-62,29,33,-18,36,-17,26,-59,-21,2,30,-4,-36,127,-3,-73,-18,6,0,-23,-8,19,2,39,5,1,73,-4,14,-51,-42,-2,-48,-18,-30,59,-54,71,40,19,-9,5,0,-28,38,-3,4,-84,19,-39,43,-67,-52,-31,16,8,-7,10,83,73,13,18,33,-53,-19,13,4,-39,28,6,0,-1,-74,-7,-20,-9,2,9,-30,-56,28,79,15,69,37,-18,-27,-7,-11,-29,0,7,-40,12,-17, 
  /* [81][0][][] */ -18,31,55,33,-23,-93,-17,2,-90,60,-8,-41,0,47,-52,5,-36,-7,-56,24,-11,27,60,29,-1,127,-52,-26,-37,4,48,-64,7,67,-31,-10,-23,14,31,-94,39,59,-102,-18,13,-23,-3,-6,-38,12,6,-50,18,2,40,77,-32,39,-16,25,30,8,15,76,-51,4,-71,2,17,-6,-22,100,65,6,7,-20,55,-19,82,51,-16,5,53,47,61,61,-35,-16,4,-42,8,20,18,14,-12,57,62,47,44,-41,46,-15, 
  /* [82][0][][] */ -33,39,32,-22,-11,20,-24,33,-37,41,27,45,59,54,25,-33,53,9,4,21,32,18,19,11,-16,-72,44,12,-15,-4,-21,-23,20,-14,39,-44,-1,24,48,-127,92,-39,36,1,-17,-49,2,11,25,-46,9,1,-52,-56,-29,40,-1,-37,-15,26,-6,-14,31,-11,-1,15,-61,-12,21,45,-26,33,126,8,23,-23,-54,-6,14,-7,-29,-88,-51,17,13,-43,-2,25,44,33,19,-6,-26,50,8,-25,26,0,46,0,-4,17, 
  /* [83][0][][] */ -8,12,-75,21,-17,-1,3,-46,4,-53,-57,-36,6,42,23,33,-72,-37,-41,-14,-22,17,127,-14,29,-46,14,-58,-29,62,-26,29,23,21,-5,34,-33,1,3,-24,15,-8,11,12,16,-2,-18,27,-23,46,80,47,-10,87,18,-18,-55,-94,7,42,-62,-15,-19,25,17,-45,-19,-23,-7,9,-2,4,11,37,-23,-11,-9,6,-35,-2,34,20,11,-40,-15,36,78,-27,-68,-1,32,15,57,52,19,-13,30,69,14,-28,-15,21, 
  /* [84][0][][] */ -44,-1,65,8,19,-22,-57,37,-55,13,26,-9,-19,44,21,105,-17,43,65,-127,1,-35,49,28,-1,-52,-16,2,-36,26,-17,-51,-42,20,38,-40,0,-7,-30,-31,28,26,20,-44,-33,-11,-73,42,35,22,1,11,16,4,-55,13,21,64,-18,-23,38,2,52,-9,0,70,9,40,-32,24,4,-48,37,4,-24,-45,-32,26,-14,-8,28,-35,-3,57,49,-125,19,16,-18,-6,-30,-6,11,-38,43,63,22,-54,-45,8,-51,-77, 
  /* [85][0][][] */ -49,22,-25,17,38,-19,47,11,-75,20,3,-55,-45,-3,-71,-70,6,-54,-28,-9,66,-1,-19,60,127,47,-38,76,-60,4,46,8,-32,-114,31,-7,32,-77,-46,-53,30,-7,14,-9,-79,85,-65,2,-66,-126,19,12,-39,-63,-9,3,34,10,-78,41,-84,11,16,-79,35,-16,-63,32,5,2,31,-19,17,-31,49,-65,43,39,-28,87,-9,15,-31,-8,-37,26,0,1,-66,-1,43,-46,12,29,-14,-12,-24,-34,92,-84,-3,26, 
  /* [86][0][][] */ -17,3,20,-64,5,-14,-37,34,28,-117,-54,-81,-39,-30,62,30,15,-60,18,40,35,127,54,-47,45,84,9,9,-63,0,-38,10,-30,1,-79,-6,3,-29,-5,-66,102,-29,91,-34,-78,3,-38,37,-26,41,-86,31,-49,3,-54,-20,43,6,35,-49,33,43,72,34,26,-16,2,-26,-60,36,45,-66,44,2,-80,2,43,-32,-14,41,-113,36,80,-98,-54,-83,19,35,76,-126,-4,40,86,-26,11,-31,15,-31,23,23,46,-77, 
  /* [87][0][][] */ 28,18,34,-6,43,44,21,-52,19,-39,-11,-38,-27,-26,16,39,42,-57,-17,26,23,-6,-25,-127,14,58,-2,63,1,11,6,63,7,62,0,-8,17,94,50,-23,-1,34,3,22,-1,47,21,-41,-5,43,41,16,-6,-23,-32,27,-43,72,-58,-2,-7,-5,-20,-30,-27,7,0,27,37,59,-22,25,-13,13,-48,-88,-79,-21,24,29,-85,-18,10,-14,-13,4,-7,19,41,11,-31,42,-16,-15,-32,-94,6,-6,3,21,-5,1, 
  /* [88][0][][] */ -51,1,47,52,-32,-23,33,-15,-54,-53,-5,30,-15,-34,-19,-34,78,-100,33,1,12,-44,13,23,-2,82,-85,80,-22,-34,-58,-75,-94,-40,84,-39,-44,2,-44,85,-118,-3,-2,-33,-46,-55,-37,20,-1,-101,88,-72,-12,-33,-16,-24,-25,-36,26,20,-34,-8,-22,-15,42,-16,-41,27,-58,17,-18,44,14,7,23,19,-1,-30,-56,-7,34,9,-127,-20,15,-9,-37,-69,6,-22,-25,-4,-21,-30,43,27,-60,-21,-107,21,-58,72, 
  /* [89][0][][] */ 81,22,-62,31,-15,-46,65,-9,-23,16,-9,40,-34,51,41,-11,-9,-82,46,23,5,-51,15,2,8,-66,3,48,-47,-37,-83,61,-33,65,-7,46,-5,95,-6,-3,-13,17,-90,-79,23,55,15,-15,-31,-60,20,-76,16,-5,79,-40,74,21,44,-42,40,76,-2,-9,-47,-12,21,-77,-48,-4,127,-14,5,12,-4,-2,-30,-73,-30,27,-100,4,53,87,-10,42,-10,-28,-7,8,-22,-1,62,64,41,-27,-9,31,12,7,100,84, 
  /* [90][0][][] */ -38,20,-59,52,-51,20,-7,-16,-76,36,5,-37,11,-36,127,-15,27,-18,-15,-11,56,-6,50,-6,-20,14,-15,25,-31,11,25,-38,39,-107,22,33,28,48,36,-8,48,53,-64,55,-5,54,-49,-71,116,59,-25,-13,44,4,30,29,42,-10,-5,-30,-27,104,-37,-57,27,50,3,5,-35,15,11,5,55,5,-21,37,-21,-21,81,-61,-71,-27,-14,6,52,23,14,-28,39,-23,-19,53,40,81,92,-1,34,32,57,-24,38,-51, 
  /* [91][0][][] */ -13,-11,-14,35,-46,22,-23,-16,23,-23,-64,-16,-63,-5,1,-11,-5,-19,36,-45,-127,-18,-16,40,-3,27,-47,-20,14,-27,-33,-36,-22,48,34,2,8,26,-20,37,-6,-1,-58,-13,18,72,11,24,40,-6,17,17,-54,99,-74,-48,44,-10,13,-68,28,6,15,12,21,-3,-19,-10,-40,-26,-9,25,-80,97,-12,18,75,10,-76,-38,-21,0,26,-43,19,41,-40,-1,-78,6,24,-4,-1,-8,7,68,9,13,4,39,25,-65, 
  /* [92][0][][] */ -14,110,20,30,-48,-9,-40,20,-21,-48,51,-44,2,40,-14,-11,38,12,40,-38,-37,-34,29,5,68,-9,19,13,12,-15,-48,-7,-12,20,3,26,-8,-58,4,26,-28,9,-14,-18,-43,27,15,14,23,-9,11,-69,43,-25,-28,20,51,-7,40,16,-34,-19,-1,7,-87,11,19,-33,33,-15,18,-61,-15,-14,31,127,-33,-40,20,-16,-32,-29,30,22,-16,-43,55,-35,4,4,26,5,9,-32,9,21,-6,18,-12,17,23,-8, 
  /* [93][0][][] */ 39,-9,-25,-77,-60,0,-53,7,-38,24,-39,-62,-13,-32,50,-17,-16,-23,70,13,52,-25,56,-42,-41,-40,24,-12,0,-11,32,-10,-15,-38,0,-27,24,24,34,63,-55,26,-40,-61,12,83,-79,29,36,-10,-49,38,-55,39,24,-34,-95,57,-49,5,16,-4,-4,-111,-50,-58,-23,54,21,23,5,80,-64,17,9,25,32,127,9,5,14,-63,-2,8,-67,28,27,8,28,23,-20,-2,50,51,27,35,-60,-73,-12,-1,-9,20, 
  /* [94][0][][] */ 6,-3,21,-1,-76,-25,-91,16,-18,-86,24,-14,-10,4,76,-49,15,-55,-12,-46,49,-3,-98,-27,-5,-12,-48,12,-65,98,-29,-15,-22,34,-13,47,-7,0,-29,-97,-18,-102,-78,-5,-6,-32,-86,47,7,0,37,32,-15,-20,-3,9,-1,-32,27,-31,39,127,71,42,-16,29,28,-59,-56,63,-51,29,17,-10,-20,-42,-5,37,62,2,-4,27,-53,-2,-15,92,-20,-2,-44,58,-23,22,3,-29,49,17,65,-21,66,-67,4,37, 
  /* [95][0][][] */ -48,36,-52,-37,17,28,-21,20,0,-36,13,36,-3,-2,5,20,-3,-19,20,-41,22,41,27,19,15,-1,32,-18,-36,-16,22,20,7,-8,-43,-19,17,8,7,-11,6,2,19,-22,-29,-32,-12,-23,-27,-72,-43,35,-20,-21,-1,26,23,-30,-11,-50,-127,2,13,-2,-4,-25,10,-13,-47,47,33,15,-37,13,21,38,10,-8,-30,31,-2,-3,-40,14,19,35,-18,-38,0,-26,36,13,-27,-5,1,21,47,-35,-83,45,63,45, 
  /* [96][0][][] */ -70,21,59,-45,41,0,66,50,-53,-46,12,53,50,32,-25,46,109,2,6,27,-19,52,-55,94,-30,12,27,-18,-56,3,115,10,68,-53,-37,43,-5,77,-3,-2,125,-3,-16,-35,-7,1,-10,-20,8,16,-20,53,-8,57,-10,-40,47,66,2,42,-28,24,-60,96,-83,0,-67,-25,-38,-58,-19,17,-25,-108,-62,72,-25,5,-14,22,15,-5,-9,69,48,-1,-30,70,-24,-18,-11,-27,50,44,127,-17,12,11,50,5,4,-1, 
  /* [97][0][][] */ -48,27,-29,-57,-66,41,70,-42,25,-30,-38,-20,-77,-7,21,127,127,-28,-6,-72,-27,14,84,65,75,23,-70,-78,65,-10,32,35,-61,-53,-2,-23,62,-28,-20,69,10,-48,45,14,-41,-58,0,-20,-17,-18,24,59,61,46,47,-59,-75,-7,37,29,12,-75,-10,-85,-16,26,-6,21,33,8,25,28,7,7,6,1,-50,-31,15,3,28,-67,27,12,-15,50,-5,24,-110,-56,-48,26,-22,98,-43,-34,-18,-43,-13,10,29,-105, 
  /* [98][0][][] */ -34,21,-35,32,-31,60,15,-10,127,19,-34,-21,-25,23,38,6,12,-50,-7,-14,-22,35,6,-15,53,45,-5,22,-4,-48,-66,38,-5,-29,-4,21,-28,-38,-12,39,-17,-25,-10,-37,-5,-32,21,-49,-25,62,10,-30,16,-44,-20,-11,53,-26,-21,-50,-4,55,-24,-37,-38,49,-29,13,-10,25,18,10,16,-11,16,2,3,-31,43,4,20,-11,9,14,33,26,45,-32,-19,33,-58,-47,-25,25,-5,-33,0,14,69,11,-32,-43, 
  /* [99][0][][] */ -2,-19,38,-26,-34,-16,68,65,7,1,32,11,-39,31,43,-11,-25,2,-30,-39,14,29,49,6,2,27,-21,15,-48,-49,39,-21,24,11,39,0,71,1,18,-1,45,9,22,-60,12,34,22,-32,-18,44,-12,5,29,-9,-10,-7,15,27,12,47,-21,24,-41,2,-54,27,-90,4,-24,24,39,2,45,15,24,19,-50,-78,-6,8,29,-52,13,13,0,-2,-27,60,13,-53,-78,29,-6,15,-4,40,-15,3,-127,-42,-4,-34, 
  /* [100][0][][] */ -39,19,5,-58,-81,4,46,-14,-57,-35,2,71,12,17,-45,30,-73,3,45,-4,14,-108,-35,-58,22,89,-29,22,-47,68,-13,69,-35,-22,5,-86,51,-117,-57,18,60,-11,24,42,-1,25,-38,21,39,-5,127,33,-13,-50,65,21,-84,5,-77,40,-49,24,17,-71,28,-21,10,-11,62,13,-86,25,-72,-19,20,53,100,19,-54,83,-42,-105,-33,18,20,-49,-50,-71,58,36,-1,31,43,-98,74,-56,101,-57,-9,27,11,-37, 
  /* [101][0][][] */ -48,-52,5,-54,-72,2,-48,-4,16,-11,7,-27,-11,14,29,-27,10,49,-60,-31,-20,15,-35,-127,-29,27,24,37,-13,-36,14,48,20,31,13,-30,21,92,-21,49,31,-7,51,-17,-7,-2,-11,-3,-32,-7,16,23,30,20,-1,14,-26,-27,-45,40,-7,-39,-27,28,-32,-25,-11,28,-15,-31,-8,-22,-10,-58,-7,-74,8,8,-30,5,70,20,-28,-11,-32,-11,61,1,-1,42,-6,44,-5,20,20,67,12,-16,10,13,-11,-82, 
};
const TfArray<4, int> tensor_dimension8 = { 4, { 102,1,1,102 } };
const TfArray<102, float> quant8_scale = { 102, { 0.011943792924284935, 0.0092203468084335327, 0.010735479183495045, 0.0097128134220838547, 0.014052099548280239, 0.010394087061285973, 0.012174049392342567, 0.0084982346743345261, 0.0084697036072611809, 0.0091926967725157738, 0.011752735823392868, 0.014130044728517532, 0.010943190194666386, 0.01224132813513279, 0.0099762100726366043, 0.011042935773730278, 0.0093777719885110855, 0.013737678527832031, 0.010848087258636951, 0.0085321525111794472, 0.0093097677454352379, 0.011928960680961609, 0.01153735164552927, 0.016024995595216751, 0.0098869744688272476, 0.0089172152802348137, 0.013121756725013256, 0.01267720852047205, 0.0099096810445189476, 0.0093447938561439514, 0.011056921444833279, 0.013847795315086842, 0.014175920747220516, 0.012123686261475086, 0.014332270249724388, 0.009846273809671402, 0.011967168189585209, 0.0089757209643721581, 0.009938322938978672, 0.010349408723413944, 0.011105605401098728, 0.0091758258640766144, 0.012514453381299973, 0.011682251468300819, 0.0079585285857319832, 0.0095364740118384361, 0.0095944320783019066, 0.012879369780421257, 0.012308797799050808, 0.015441234223544598, 0.011564123444259167, 0.014846674166619778, 0.010967954061925411, 0.0082889264449477196, 0.016400702297687531, 0.012049280107021332, 0.017591753974556923, 0.009861065074801445, 0.015393529087305069, 0.011097651906311512, 0.010390454903244972, 0.01412844005972147, 0.0094425296410918236, 0.0096576856449246407, 0.012686045840382576, 0.010712596587836742, 0.010512443259358406, 0.012300333008170128, 0.011923934333026409, 0.0080722356215119362, 0.012678938917815685, 0.010333348996937275, 0.014935335144400597, 0.0085754347965121269, 0.011471020057797432, 0.0094271423295140266, 0.010978722013533115, 0.0090561080724000931, 0.013134168460965157, 0.012936171144247055, 0.013337505981326103, 0.0084354979917407036, 0.013022240251302719, 0.012881625443696976, 0.013941369019448757, 0.010042146779596806, 0.010563968680799007, 0.011473589576780796, 0.010158780962228775, 0.010504617355763912, 0.011953872628509998, 0.012256855145096779, 0.013258099555969238, 0.012506047263741493, 0.013555446639657021, 0.017272556200623512, 0.011504705063998699, 0.01231727097183466, 0.014045169577002525, 0.013001990504562855, 0.010090531781315804, 0.012298674322664738, } };
const TfArray<102, int> quant8_zero = { 102, { 0,0,0,0,0,0,0,0,0,0,0,0,0,0,0,0,0,0,0,0,0,0,0,0,0,0,0,0,0,0,0,0,0,0,0,0,0,0,0,0,0,0,0,0,0,0,0,0,0,0,0,0,0,0,0,0,0,0,0,0,0,0,0,0,0,0,0,0,0,0,0,0,0,0,0,0,0,0,0,0,0,0,0,0,0,0,0,0,0,0,0,0,0,0,0,0,0,0,0,0,0,0 } };
const TfLiteAffineQuantization quant8 = { (TfLiteFloatArray*)&quant8_scale, (TfLiteIntArray*)&quant8_zero, 0 };
const ALIGN(16) int32_t tensor_data9[102] = { 24723, 24659, 36167, -6808, -830, 29999, 30188, 32586, -7470, 15355, -1284, 22487, -603, -2494, -5529, -617, -498, -1698, 88, 19773, 27545, 24773, 29720, 33126, 459, -7952, 25260, 20862, 30514, 19343, -5051, -825, -10002, 42374, 20181, 168, -517, -267, -332, 36660, -623, -550, 26326, 21759, 23011, 22125, 23575, -375, 408, 28184, 33896, 20229, 6062, -1554, 25000, 27556, 29534, 29095, -322, -678, 23146, -890, -179, 36424, 29622, 29291, -7697, -211, 25430, 17840, -1533, -1533, -3978, -719, -2246, 23319, 53, 29183, 39290, 1968, 40028, 27957, -3782, -466, 24995, 107, 19828, -1431, -782, -151, 13415, -9511, -2518, -445, -929, -12451, -12829, 19012, 34124, 23018, 27199, -94, };
const TfArray<1, int> tensor_dimension9 = { 1, { 102 } };
const TfArray<102, float> quant9_scale = { 102, { 6.0978069086559117e-05, 9.2307796876411885e-05, 6.7320965172257274e-05, 0.00010444023791933432, 4.8246041842503473e-05, 5.7786248362390324e-05, 8.6353575170505792e-05, 7.0584173954557627e-05, 5.4313011787598953e-05, 9.6116338681895286e-05, 0.00014812238805461675, 8.9430170191917568e-05, 4.662162609747611e-05, 0.00010726032633101568, 7.8932192991487682e-05, 5.510075789061375e-05, 7.7235177741385996e-05, 7.1161433879751712e-05, 8.1846890680026263e-05, 9.8396085377316922e-05, 0.00010528841085033491, 0.00010260836279485375, 0.00011259873281233013, 6.6769658587872982e-05, 5.6705481256358325e-05, 0.00010328939970349893, 8.5078681877348572e-05, 9.931653767125681e-05, 8.6953419668134302e-05, 0.00012698076898232102, 5.3341380407800898e-05, 4.34143039456103e-05, 8.3247294242028147e-05, 5.5805521697038785e-05, 0.00012518175935838372, 0.00019587978022173047, 0.0001271437358809635, 5.1898925448767841e-05, 7.9921752330847085e-05, 5.838337165187113e-05, 4.8260571929858997e-05, 5.9880079788854346e-05, 0.00010194404603680596, 0.00011354804155416787, 0.00011782057117670774, 0.00013721217692364007, 6.8701323471032083e-05, 9.6036026661749929e-05, 5.4012303735362366e-05, 9.8084696219302714e-05, 7.7048469393048435e-05, 6.0418886278057471e-05, 0.00031929404940456152, 4.6543998905690387e-05, 0.00010833178384928033, 6.9080830144230276e-05, 8.2358623330947012e-05, 0.00012215100286994129, 6.4617182943038642e-05, 0.00010189891327172518, 0.00014452489267569035, 0.00014566066965926439, 0.00010261020361213014, 7.3169925599358976e-05, 9.6086863777600229e-05, 6.584834773093462e-05, 4.1282262827735394e-05, 7.890766573837027e-05, 5.0852908316301182e-05, 7.9512181400787085e-05, 0.00010787366045406088, 8.7399974290747195e-05, 4.4170719775138423e-05, 0.00013883027713745832, 8.7478161731269211e-05, 6.8362765887286514e-05, 7.3080955189652741e-05, 9.7087191534228623e-05, 5.7736211601877585e-05, 0.00012754123599734157, 6.1656151956412941e-05, 6.1785212892573327e-05, 6.6946668084710836e-05, 5.5929063819348812e-05, 9.522255277261138e-05, 4.7013818402774632e-05, 8.7936554336920381e-05, 7.6025018643122166e-05, 4.8365607653977349e-05, 5.1706669182749465e-05, 0.0001841447374317795, 7.9991063103079796e-05, 0.00013856992882210761, 9.1806316049769521e-05, 0.00013611681060865521, 0.00011726669617928565, 6.17922269157134e-05, 8.8374246843159199e-05, 4.9239162763115019e-05, 8.1411431892774999e-05, 0.00010823224147316068, 4.5901146222604439e-05, } };
const TfArray<102, int> quant9_zero = { 102, { 0,0,0,0,0,0,0,0,0,0,0,0,0,0,0,0,0,0,0,0,0,0,0,0,0,0,0,0,0,0,0,0,0,0,0,0,0,0,0,0,0,0,0,0,0,0,0,0,0,0,0,0,0,0,0,0,0,0,0,0,0,0,0,0,0,0,0,0,0,0,0,0,0,0,0,0,0,0,0,0,0,0,0,0,0,0,0,0,0,0,0,0,0,0,0,0,0,0,0,0,0,0 } };
const TfLiteAffineQuantization quant9 = { (TfLiteFloatArray*)&quant9_scale, (TfLiteIntArray*)&quant9_zero, 0 };
const ALIGN(16) int8_t tensor_data10[1*3*3*102] = { 
  /* [0][0][][] */ -127,-49,-118,57,51,-45,-99,-121,40,-109,62,-60,40,-22,10,43,46,-61,64,-83,-117,-110,-66,-28,42,54,-52,-93,-43,7,16,-7,37,-70,-127,39,44,55,-123,-66,-34,15,-99,-60,-64,-31,-32,-127,-14,-127,-87,-127,-23,70,-31,-90,-50,-21,17,43,-73,-52,63,-22,-102,-115,82,-62,-125,-127,31,88,45,52,105,-71,8,-119,10,58,-66,-97,13,-102,-110,55,-99,29,56,38,-23,-84,5,71,73,81,122,-64,-111,-127,-127,72, -81,-57,-127,127,127,-52,-103,-104,127,-88,13,-31,73,87,74,42,127,81,127,-107,-127,-127,-127,-98,69,44,-95,-61,-127,-127,92,117,67,-125,-102,22,127,127,34,-102,83,-12,-125,-125,-127,-127,-34,41,47,-117,-127,-78,-127,127,-85,-50,-60,-117,81,58,-122,41,64,-62,-91,-97,127,95,-93,-70,37,83,117,21,124,-69,59,-127,-71,65,-83,-121,28,127,-84,101,-39,6,127,95,-13,14,38,109,28,80,48,-127,-127,-112,-80,66, -98,-49,-120,38,72,-50,-106,-127,19,-127,-26,-72,43,-35,8,49,-2,-69,36,-50,-123,-101,-53,-27,40,39,-38,-77,-77,4,-51,-49,51,-84,-110,40,50,47,-76,-82,9,0,-107,-48,-75,-34,-26,87,0,-109,-88,-114,-24,80,-40,-65,-52,-22,53,-127,-74,23,-127,-13,-99,-127,49,23,-127,-98,11,76,48,-127,100,-48,-127,-112,5,66,-82,-75,-94,36,-83,56,-127,11,58,35,-37,-88,7,62,-127,94,99,-38,-92,-106,-114,46, 
  /* [0][1][][] */ -97,-127,-80,94,92,-64,-127,-37,118,-56,-84,-56,70,83,71,66,76,68,86,-127,-86,-123,-34,-111,94,16,-92,-127,-58,-24,102,123,63,-127,-51,47,-25,101,64,-91,127,76,-101,-74,-73,-57,-84,-111,98,-120,-80,-92,-9,71,-73,-106,-72,-45,96,57,-68,-63,97,-87,-127,-64,123,100,-97,-76,69,44,44,42,-12,-98,82,-71,-84,38,-121,-123,36,107,-29,55,-68,32,79,48,-29,78,-12,-19,38,52,40,-44,-81,-101,-116,84, -60,-61,-123,57,104,-88,-61,-51,117,-30,127,-66,127,127,127,115,47,127,75,-56,-104,-108,-116,-75,127,127,-112,-69,-107,-103,127,111,82,-79,-106,-36,-54,126,112,-104,84,97,-127,-127,-115,-98,-127,75,122,-98,-107,-33,-60,119,-127,-96,-113,-127,73,59,-127,36,27,-77,-92,-22,92,109,-61,-27,127,77,127,60,76,-39,71,-68,-127,-90,-103,-115,69,89,-122,127,-41,127,115,127,-127,84,127,127,33,-2,127,-113,-104,-48,-47,127, -79,-98,-67,87,69,-66,-106,-41,82,-73,40,-64,81,84,48,39,127,79,100,-122,-87,-111,-53,-98,92,29,-83,-115,-57,-14,80,127,61,-120,-51,-127,-11,109,87,-121,98,86,-79,-66,-67,-48,-98,74,106,-109,-70,-89,-11,65,-61,-114,-63,-73,81,61,-78,54,-119,-89,-108,-71,123,67,-91,-73,70,54,66,48,-3,-124,109,-79,-86,52,-127,-127,55,90,-26,95,-84,12,78,56,-43,77,-9,22,-35,58,5,-80,-85,-88,-81,91, 
  /* [0][2][][] */ -40,-76,-52,36,-51,-115,-57,-123,-12,-68,98,-127,41,-69,-45,76,25,-3,-55,-104,-50,6,-22,-84,22,35,-70,-38,-20,7,40,102,78,-41,34,63,-20,30,-38,-88,26,28,-35,30,-50,0,-41,-108,20,-42,-22,-123,4,-71,-83,-127,-69,-27,-91,25,-38,-127,37,-80,-36,-127,23,-127,-71,-61,-121,-127,14,-75,-49,-127,48,-69,-114,4,-71,-112,72,31,-127,39,-72,61,-22,3,4,72,41,-64,36,127,33,-39,-32,-3,-76,69, -91,-97,-75,85,17,-127,-62,-111,82,-43,-3,-96,113,67,-37,127,70,83,102,-98,-9,-15,-54,-127,57,28,-127,-35,-35,-50,105,125,127,-46,0,-32,-111,89,127,-127,91,127,-93,-45,-44,-27,-64,52,127,1,-66,-60,39,99,-62,-103,-127,-111,127,70,-67,40,44,-127,-89,-94,102,115,-76,-62,-14,-31,115,-63,-111,-74,92,-36,-124,-127,-87,-127,127,97,-104,59,-27,66,63,32,-106,127,59,-87,41,3,63,-31,-125,-40,9,91, -31,-61,-36,39,-32,-111,-82,-105,-4,-68,-76,-91,25,-57,-41,81,-20,9,-69,-68,-53,10,-6,-52,30,12,-69,-35,17,-10,48,74,27,-47,23,-33,-45,16,6,-110,56,37,-40,19,-50,-8,-56,55,35,-58,-30,-98,-2,-7,-81,-111,-89,-16,-38,-5,-51,42,-86,-62,-32,-123,-3,30,-83,-47,-87,-126,29,-81,-127,-59,28,-32,-112,3,-80,-97,70,64,-93,25,-86,72,-33,22,16,69,23,-63,-79,75,41,-23,-38,-3,-72,81, 
};
const TfArray<4, int> tensor_dimension10 = { 4, { 1,3,3,102 } };
const TfArray<102, float> quant10_scale = { 102, { 0.00424573989585042, 0.0064271450974047184, 0.0046873791143298149, 0.0072718947194516659, 0.0033592430409044027, 0.0040235021151602268, 0.0060125687159597874, 0.0049145873636007309, 0.0037816697731614113, 0.0066923238337039948, 0.010313366539776325, 0.0062267836183309555, 0.0032461392693221569, 0.0074682501144707203, 0.005495837889611721, 0.003836518619209528, 0.005377679131925106, 0.0049547804519534111, 0.0056987805292010307, 0.0068510565906763077, 0.007330950815230608, 0.0071443459019064903, 0.007839948870241642, 0.0046489927917718887, 0.0039482512511312962, 0.007191765122115612, 0.005923801101744175, 0.0069151450879871845, 0.0060543343424797058, 0.0088413320481777191, 0.003714017802849412, 0.0030228218529373407, 0.0057962867431342602, 0.0038855893071740866, 0.0087160710245370865, 0.013638585805892944, 0.0088526783511042595, 0.0036135835107415915, 0.0055647380650043488, 0.004065078217536211, 0.0033602546900510788, 0.0041692899540066719, 0.0070980917662382126, 0.0079060466960072517, 0.0082035316154360771, 0.0095537174493074417, 0.0047834897413849831, 0.0066867317073047161, 0.0037607324775308371, 0.0068293754011392593, 0.0053646792657673359, 0.0042068054899573326, 0.022231591865420341, 0.003240734338760376, 0.0075428527779877186, 0.0048099136911332607, 0.0057344110682606697, 0.0085050482302904129, 0.0044991215690970421, 0.0070949490182101727, 0.010062881745398045, 0.010141963139176369, 0.0071444744244217873, 0.0050946264527738094, 0.0066902716644108295, 0.0045848446898162365, 0.0028743736911565065, 0.0054941298440098763, 0.0035407522227615118, 0.0055362205021083355, 0.0075109549798071384, 0.0060854265466332436, 0.0030754890758544207, 0.0096663814038038254, 0.0060908705927431583, 0.0047599165700376034, 0.0050884317606687546, 0.0067599215544760227, 0.0040200180374085903, 0.0088803553953766823, 0.0042929532937705517, 0.0043019391596317291, 0.0046613174490630627, 0.0038941912353038788, 0.0066300919279456139, 0.0032734465785324574, 0.0061227874830365181, 0.0052934191189706326, 0.0033675679005682468, 0.0036001971457153559, 0.012821505777537823, 0.0055695641785860062, 0.0096482541412115097, 0.0063922284170985222, 0.0094774495810270309, 0.0081649664789438248, 0.0043024276383221149, 0.0061532626859843731, 0.0034283914137631655, 0.0056684603914618492, 0.0075359218753874302, 0.0031959740445017815, } };
const TfArray<102, int> quant10_zero = { 102, { 0,0,0,0,0,0,0,0,0,0,0,0,0,0,0,0,0,0,0,0,0,0,0,0,0,0,0,0,0,0,0,0,0,0,0,0,0,0,0,0,0,0,0,0,0,0,0,0,0,0,0,0,0,0,0,0,0,0,0,0,0,0,0,0,0,0,0,0,0,0,0,0,0,0,0,0,0,0,0,0,0,0,0,0,0,0,0,0,0,0,0,0,0,0,0,0,0,0,0,0,0,0 } };
const TfLiteAffineQuantization quant10 = { (TfLiteFloatArray*)&quant10_scale, (TfLiteIntArray*)&quant10_zero, 3 };
const ALIGN(16) int32_t tensor_data11[102] = { 50232, 22131, 34040, 33939, 8752, 10128, -2108, 10783, 4716, 4910, -30067, 25465, 10432, 51246, -18089, 4387, 11168, -17719, 28202, -27968, 13447, -10726, -1466, 18580, 193, -12934, 3207, -26472, 31292, 14458, -21603, -37455, 20716, 35881, -4214, 7547, -24355, 215, 14884, 19094, -325, -1294, 11135, 11452, -14342, 27939, 2163, -5181, 26199, -6959, 17365, -8151, 46443, -18026, 32727, 8646, 7051, 11418, -37375, -21888, 3204, -533, -8016, 7395, -11065, -8296, -2172, -15068, 13546, 11176, 29110, -26906, 10080, -2380, 736, -7614, -9477, -8250, 4705, 803, 21763, 29065, 8563, -13438, -20373, -19433, 17600, 49796, 5205, -24795, -33060, 33243, -27402, 15183, -14757, -26208, -26586, 3902, -14966, 5196, 7820, 15599, };
const TfArray<1, int> tensor_dimension11 = { 1, { 102 } };
const TfArray<102, float> quant11_scale = { 102, { 5.2130257245153189e-05, 4.5200333261163905e-05, 5.159230568096973e-05, 5.6312474043807015e-05, 6.8795037805102766e-05, 5.2676168706966564e-05, 5.7307035604026169e-05, 7.3470342613290995e-05, 7.4134382884949446e-05, 4.4634260120801628e-05, 7.9296893090941012e-05, 4.64287368231453e-05, 8.3733182691503316e-05, 6.1192477005533874e-05, 7.6103176979813725e-05, 6.865550676593557e-05, 8.3812970842700452e-05, 7.2549912147223949e-05, 5.805279579362832e-05, 4.1524850530549884e-05, 4.4895296014146879e-05, 4.3514904973562807e-05, 5.6058212067000568e-05, 5.889014937565662e-05, 5.8934725529979914e-05, 5.7435921917203814e-05, 7.0077338023111224e-05, 5.2553790737874806e-05, 4.6400360588449985e-05, 3.1439609301742166e-05, 6.5285108576063067e-05, 0.00010057538747787476, 7.4144198151770979e-05, 4.6968303649919108e-05, 4.5534554374171421e-05, 8.0613863246981055e-05, 5.6791846873238683e-05, 6.7984394263476133e-05, 7.5775766163133085e-05, 5.7334971643285826e-05, 6.2652237829752266e-05, 0.00011157331755384803, 4.8313453589798883e-05, 3.6949411878595129e-05, 3.599840056267567e-05, 3.7854180845897645e-05, 7.1777103585191071e-05, 6.4226172980852425e-05, 7.3203875217586756e-05, 4.338785947766155e-05, 4.882931534666568e-05, 6.0282658523647115e-05, 4.3441086745588109e-05, 0.0001068976052920334, 5.1333230658201501e-05, 5.0941544031957164e-05, 4.6859975554980338e-05, 4.4559201342053711e-05, 9.0334004198666662e-05, 9.7083473519887775e-05, 3.4360931749688461e-05, 7.1958937041927129e-05, 7.5981130066793412e-05, 3.7071520637255162e-05, 5.3216543165035546e-05, 0.00012075746053596959, 7.7801742008887231e-05, 0.0001065320975612849, 7.0837464591022581e-05, 6.8356806878000498e-05, 7.625402940902859e-05, 9.1114423412363976e-05, 8.5485655290540308e-05, 7.9467085015494376e-05, 5.2212129958206788e-05, 7.3849027103278786e-05, 8.2389393355697393e-05, 3.6852394259767607e-05, 6.5267842728644609e-05, 8.171103399945423e-05, 6.5126099798362702e-05, 4.1699189750943333e-05, 7.4643823609221727e-05, 8.8437060185242444e-05, 4.7164314310066402e-05, 9.2193622549530119e-05, 5.7950306654674932e-05, 6.7136090365238488e-05, 5.2267747378209606e-05, 9.6984964329749346e-05, 4.220420669298619e-05, 6.443650636356324e-05, 6.7827320890501142e-05, 0.00011183221795363352, 7.7457436418626457e-05, 7.5680538429878652e-05, 6.6120614064857364e-05, 5.6674238294363022e-05, 6.5421168983448297e-05, 7.9043828009162098e-05, 4.2636198486434296e-05, 6.3092091295402497e-05, } };
const TfArray<102, int> quant11_zero = { 102, { 0,0,0,0,0,0,0,0,0,0,0,0,0,0,0,0,0,0,0,0,0,0,0,0,0,0,0,0,0,0,0,0,0,0,0,0,0,0,0,0,0,0,0,0,0,0,0,0,0,0,0,0,0,0,0,0,0,0,0,0,0,0,0,0,0,0,0,0,0,0,0,0,0,0,0,0,0,0,0,0,0,0,0,0,0,0,0,0,0,0,0,0,0,0,0,0,0,0,0,0,0,0 } };
const TfLiteAffineQuantization quant11 = { (TfLiteFloatArray*)&quant11_scale, (TfLiteIntArray*)&quant11_zero, 0 };
const ALIGN(16) int8_t tensor_data12[102*1*1*51] = { 
  /* [0][0][][] */ 83,-56,127,1,-8,-43,-44,2,-71,-26,24,-98,11,12,-28,28,43,-104,-14,-23,25,115,51,-102,20,63,-82,-31,38,-66,-55,-53,-17,-76,-47,-102,-50,61,-85,-33,68,-88,49,-2,76,-36,-70,-82,-43,-42,61, 
  /* [1][0][][] */ -37,-21,89,-31,-62,-10,11,20,72,22,-30,-16,-22,-45,-25,-89,-45,-29,27,33,15,35,55,-79,-27,49,-4,86,-108,15,-18,27,-99,-11,19,-25,-20,-8,-25,-1,127,-18,78,-13,-25,39,-62,-5,43,40,1, 
  /* [2][0][][] */ -48,2,-20,-62,45,-26,-12,-27,-41,-17,-70,-70,-3,35,6,-7,-35,-53,-40,-13,-7,127,4,-1,-72,27,-43,-101,-26,-24,-17,24,67,58,28,14,8,9,32,27,75,48,-79,20,6,49,-2,6,-84,31,-67, 
  /* [3][0][][] */ -51,76,4,-35,-127,-35,20,-66,-31,46,-16,63,-8,-22,-3,-79,-12,12,27,-16,-12,-20,-41,-18,-79,-49,-120,-4,32,-19,-7,31,55,73,27,-23,55,32,-59,16,-9,-33,-22,6,44,-4,-29,11,-31,9,16, 
  /* [4][0][][] */ -119,62,41,-50,-30,-44,-8,21,-48,-19,23,76,40,38,73,-44,9,11,83,127,13,67,-8,-91,-110,-80,-7,-69,34,-72,49,-105,-20,30,25,19,-20,-85,0,35,29,80,-77,-25,-14,5,-65,58,-28,-49,-108, 
  /* [5][0][][] */ 8,120,15,-32,83,103,50,-30,-95,115,41,-109,-53,-14,-73,-60,74,44,-67,120,44,-27,40,-15,-34,-50,62,-88,-95,-52,-6,25,9,-54,114,62,14,65,-3,-7,29,17,83,-31,-25,-105,-11,-60,17,-127,-122, 
  /* [6][0][][] */ -2,-3,12,-49,20,2,17,35,55,53,-15,2,-32,33,14,51,-23,37,-53,-40,1,24,-16,23,43,1,5,-15,-28,-54,127,66,-18,4,-44,22,7,-41,12,-47,-28,-37,-17,33,7,12,-40,6,54,67,-110, 
  /* [7][0][][] */ 2,-20,18,-55,18,13,1,127,14,-61,-44,-54,-94,-87,-9,-8,-32,40,-27,6,-65,50,-7,-8,-49,-40,9,55,5,-8,55,-1,9,7,25,15,70,-36,2,0,99,-10,-17,2,-13,-50,37,-31,-30,43,59, 
  /* [8][0][][] */ 25,12,34,55,-16,-5,-22,-23,19,32,-33,-19,-15,-3,5,39,-35,58,5,50,29,-13,10,-34,-24,7,-34,-18,-127,-18,-2,60,-73,23,18,-58,-39,-14,10,12,32,12,19,0,26,52,-23,-22,40,20,-3, 
  /* [9][0][][] */ 82,-48,13,-28,-9,-17,71,-116,43,68,-77,19,-48,100,-100,-29,33,-12,-69,95,-63,-27,-54,55,-62,-46,-94,-27,30,-7,29,9,-5,34,26,-69,-7,-2,68,-40,-70,91,-21,-15,37,88,127,-2,55,69,51, 
  /* [10][0][][] */ -57,127,60,-44,-13,-30,-8,34,61,45,-19,-68,46,38,34,27,10,58,-50,11,-10,-98,-10,-28,97,-21,43,-5,-22,60,-2,-47,27,56,-28,108,46,-98,-26,-13,3,-36,40,-17,17,-44,-10,117,73,32,-34, 
  /* [11][0][][] */ -20,-24,-88,-60,70,22,50,-6,80,127,-81,-53,-31,-64,-24,-35,20,77,-40,69,73,52,-53,-8,63,2,50,-36,17,-101,-27,23,-45,17,-85,-59,-32,53,40,-43,-106,-101,12,-80,-30,-87,-8,40,5,-4,4, 
  /* [12][0][][] */ 20,-36,32,15,35,-69,-96,-15,19,-78,28,54,71,78,-28,14,13,50,22,115,-85,60,34,32,13,-15,-53,-15,16,-7,71,-62,-49,-85,-40,-15,86,-1,-17,-27,-35,-127,-18,4,-16,-17,-13,-56,9,-66,33, 
  /* [13][0][][] */ -87,-77,-69,-94,88,-28,-41,-25,-22,33,-14,-40,-23,-125,-59,-45,-8,-86,54,-32,-35,1,-40,-38,-9,75,-127,-109,-1,-21,57,10,16,80,-14,-49,-46,12,-51,59,34,-66,25,-38,-9,65,-38,27,33,-2,-89, 
  /* [14][0][][] */ 48,-61,-35,-6,-3,0,-31,-70,-33,-5,30,18,-14,39,-5,-29,1,127,50,9,59,57,-95,-64,100,-32,-41,21,-2,-23,11,7,18,34,-56,30,-8,-9,16,47,-7,-23,64,-14,3,-23,38,77,28,11,3, 
  /* [15][0][][] */ 2,61,16,-127,41,11,-46,6,-70,-54,3,-2,0,-24,25,-60,-28,-21,54,86,10,71,-5,-11,-62,104,-22,-67,37,66,35,-1,-57,90,-55,-47,11,57,81,18,11,-28,54,-20,-48,-65,-71,15,32,-7,42, 
  /* [16][0][][] */ -6,64,-10,29,-26,14,-94,-21,34,-127,-30,1,-47,-63,35,-30,-8,33,5,117,-61,9,5,-51,-58,-7,29,6,-86,-6,-39,24,-31,2,15,3,-19,33,-31,-10,-81,63,114,-61,22,44,1,54,-64,21,-8, 
  /* [17][0][][] */ -8,-39,-4,127,68,-51,98,26,72,12,-90,8,33,3,-40,-36,9,-64,-14,72,-2,-44,24,-30,40,78,-39,-41,-47,-37,53,-80,73,-46,79,-9,-7,-8,23,-51,13,0,26,30,24,-69,-28,122,21,37,-43, 
  /* [18][0][][] */ -46,88,11,43,-17,60,-88,45,8,111,-127,-27,-27,0,26,28,54,-42,22,-92,-26,1,-15,-29,-52,-34,23,-23,-124,-13,-85,-45,-52,20,12,-52,-83,98,-45,6,53,-12,40,30,-21,7,9,-71,-73,-47,31, 
  /* [19][0][][] */ 37,-26,-42,26,21,-3,-40,5,-23,16,105,-5,-48,13,-6,56,34,4,42,42,-20,127,-21,-71,5,-7,-20,92,41,21,48,1,-23,84,39,42,5,-62,3,2,104,-30,-24,-19,71,41,15,-44,-23,-17,-20, 
  /* [20][0][][] */ 17,-16,41,127,-24,11,2,-21,-98,19,-23,-6,1,-92,30,31,-17,-26,-24,-16,12,4,81,32,34,3,-16,59,16,16,-19,-3,-10,17,-6,-40,-83,-63,15,30,91,17,-8,-16,-37,-45,8,48,32,22,-109, 
  /* [21][0][][] */ 12,-4,6,-65,-16,-61,85,23,-26,5,83,-5,-4,-35,-60,30,31,-96,-69,24,-100,33,33,-47,85,59,-5,99,40,31,16,-17,-74,97,-7,83,-125,30,105,-17,-23,19,14,4,-27,-49,-4,108,19,-9,-127, 
  /* [22][0][][] */ -22,-4,15,13,-30,1,33,14,-21,-29,-59,-35,26,-3,-11,31,-67,-19,47,1,-16,-3,-33,13,58,11,36,-11,9,-24,127,26,-28,-14,33,66,-46,66,20,-9,-12,67,1,20,-9,-10,29,-11,-34,15,-2, 
  /* [23][0][][] */ -3,10,-27,16,24,40,-5,-25,-33,-10,-10,-7,-8,-15,24,14,104,5,-22,9,-24,45,19,-52,-6,-41,-44,24,127,-13,1,-8,-26,3,-44,-19,-4,-57,-7,22,-82,38,6,-14,8,102,-30,-11,-46,6,24, 
  /* [24][0][][] */ -17,-59,56,-33,119,-105,27,-41,-25,-127,24,13,69,-34,15,102,20,-12,17,-47,90,51,-89,-19,19,7,18,61,113,5,-4,-78,82,13,-21,-1,-1,-1,-50,53,-25,-35,15,66,2,-84,-66,-95,-19,9,38, 
  /* [25][0][][] */ -58,50,47,12,-38,-36,-43,-46,-67,-13,31,-26,0,-24,50,39,40,127,92,-68,82,47,2,-14,-9,-53,63,0,-11,33,36,22,61,99,-33,-1,18,57,-81,89,-53,-126,27,4,3,-82,-65,86,-39,-15,113, 
  /* [26][0][][] */ 0,-4,-18,-55,52,26,9,-23,15,13,23,-50,41,-16,-50,-20,5,99,-10,8,-22,-90,-36,-34,-17,-77,16,42,35,-27,127,82,-48,29,-7,-4,43,65,-36,23,26,-13,-20,45,-6,-1,-14,0,0,-10,-5, 
  /* [27][0][][] */ -13,27,10,-43,-5,34,31,26,-4,-30,22,78,69,-19,0,-60,4,51,-19,42,-38,34,60,58,57,-41,-24,127,-16,16,44,-1,25,6,-19,-101,3,9,10,-48,45,54,9,41,51,11,33,6,-29,38,-31, 
  /* [28][0][][] */ -16,-11,7,0,39,46,34,-25,15,-7,127,-42,11,-77,-20,40,-5,-39,6,-13,3,-1,-73,43,34,12,0,-22,-117,-67,-73,18,22,-2,-117,-14,-39,37,-73,8,-58,24,-14,2,50,31,-66,83,-4,-13,-40, 
  /* [29][0][][] */ -12,22,3,23,17,-16,20,-59,96,59,36,20,-25,110,62,88,30,-52,42,-45,-60,-23,-101,74,7,-52,35,-56,-45,108,-28,-2,-31,27,-8,80,4,44,127,-52,-13,-1,25,-35,-85,109,-124,-90,-29,-25,-29, 
  /* [30][0][][] */ 25,-127,9,44,-12,1,97,-9,17,-58,-85,27,-13,50,46,-34,107,18,-21,41,39,-49,-10,37,76,18,-74,-22,-85,23,76,-41,-5,43,57,32,84,-52,111,89,-5,2,-20,-63,-43,48,66,114,-75,28,-47, 
  /* [31][0][][] */ 34,67,-8,24,46,29,52,4,4,46,-52,59,47,21,-57,60,9,-10,9,106,30,10,80,1,-50,40,-75,32,5,-8,-36,-7,-19,16,4,65,2,23,76,49,-42,127,25,-49,22,-38,-11,-50,-3,57,5, 
